{"learner":{"attributes":{"scikit_learn":"{\"_estimator_type\": \"regressor\"}"},"feature_names":["number_of_guests","quantity_of_food","type_of_food_baked_goods","type_of_food_dairy_products","type_of_food_fruits","type_of_food_meat","type_of_food_vegetables","event_type_birthday","event_type_corporate","event_type_social_gathering","event_type_wedding","storage_conditions_refrigerated","storage_conditions_room_temperature","purchase_history_occasional","purchase_history_regular","seasonality_all_seasons","seasonality_summer","seasonality_winter","preparation_method_buffet","preparation_method_finger_food","preparation_method_sit-down_dinner","geographical_location_rural","geographical_location_suburban","geographical_location_urban","pricing_high","pricing_low","pricing_moderate"],"feature_types":["int","int","int","int","int","int","int","int","int","int","int","int","int","int","int","int","int","int","int","int","int","int","int","int","int","int","int"],"gradient_booster":{"model":{"gbtree_model_param":{"num_parallel_tree":"1","num_trees":"100"},"iteration_indptr":[0,1,2,3,4,5,6,7,8,9,10,11,12,13,14,15,16,17,18,19,20,21,22,23,24,25,26,27,28,29,30,31,32,33,34,35,36,37,38,39,40,41,42,43,44,45,46,47,48,49,50,51,52,53,54,55,56,57,58,59,60,61,62,63,64,65,66,67,68,69,70,71,72,73,74,75,76,77,78,79,80,81,82,83,84,85,86,87,88,89,90,91,92,93,94,95,96,97,98,99,100],"tree_info":[0,0,0,0,0,0,0,0,0,0,0,0,0,0,0,0,0,0,0,0,0,0,0,0,0,0,0,0,0,0,0,0,0,0,0,0,0,0,0,0,0,0,0,0,0,0,0,0,0,0,0,0,0,0,0,0,0,0,0,0,0,0,0,0,0,0,0,0,0,0,0,0,0,0,0,0,0,0,0,0,0,0,0,0,0,0,0,0,0,0,0,0,0,0,0,0,0,0,0,0],"trees":[{"base_weights":[-7.1559015E-7,-6.3973117E0,1.0353078E1,-9.259981E0,-1.1116383E0,7.3838987E0,1.3905433E1,-3.7964594E-1,-2.4328351E-1,-8.246449E-2,1.9675978E-1,1.5364075E-1,2.8192958E-1,4.444252E-1,1.026065E-1],"categories":[],"categories_nodes":[],"categories_segments":[],"categories_sizes":[],"default_left":[0,0,0,0,0,0,0,0,0,0,0,0,0,0,0],"id":0,"left_children":[1,3,5,7,9,11,13,-1,-1,-1,-1,-1,-1,-1,-1],"loss_changes":[9.4512875E4,1.3335367E4,5.645754E3,2.1315664E3,3.9234553E3,1.3141758E3,2.302832E3,0E0,0E0,0E0,0E0,0E0,0E0,0E0,0E0],"parents":[2147483647,0,0,1,1,2,2,3,3,4,4,5,5,6,6],"right_children":[2,4,6,8,10,12,14,-1,-1,-1,-1,-1,-1,-1,-1],"split_conditions":[1E0,3.02E2,4.52E2,3.5E2,4.12E2,1E0,4.91E2,-3.7964594E-1,-2.4328351E-1,-8.246449E-2,1.9675978E-1,1.5364075E-1,2.8192958E-1,4.444252E-1,1.026065E-1],"split_indices":[24,0,1,1,0,20,0,0,0,0,0,0,0,0,0],"split_type":[0,0,0,0,0,0,0,0,0,0,0,0,0,0,0],"sum_hessian":[1.425E3,8.81E2,5.44E2,5.71E2,3.1E2,2.98E2,2.46E2,1.42E2,4.29E2,2.56E2,5.4E1,1.42E2,1.56E2,2.26E2,2E1],"tree_param":{"num_deleted":"0","num_feature":"27","num_nodes":"15","size_leaf_vector":"1"}},{"base_weights":[3.3187063E-4,-6.2059684E0,1.0044289E1,-8.98327E0,-1.077922E0,7.163839E0,1.3490484E1,-3.683362E-1,-2.3600194E-1,-8.0000184E-2,1.9096431E-1,1.4906377E-1,2.7352557E-1,4.3115118E-1,9.9674895E-2],"categories":[],"categories_nodes":[],"categories_segments":[],"categories_sizes":[],"default_left":[0,0,0,0,0,0,0,0,0,0,0,0,0,0,0],"id":1,"left_children":[1,3,5,7,9,11,13,-1,-1,-1,-1,-1,-1,-1,-1],"loss_changes":[8.89532E4,1.2551879E4,5.3133516E3,2.007543E3,3.6947698E3,1.2369346E3,2.1654336E3,0E0,0E0,0E0,0E0,0E0,0E0,0E0,0E0],"parents":[2147483647,0,0,1,1,2,2,3,3,4,4,5,5,6,6],"right_children":[2,4,6,8,10,12,14,-1,-1,-1,-1,-1,-1,-1,-1],"split_conditions":[1E0,3.02E2,4.52E2,3.5E2,4.12E2,1E0,4.91E2,-3.683362E-1,-2.3600194E-1,-8.0000184E-2,1.9096431E-1,1.4906377E-1,2.7352557E-1,4.3115118E-1,9.9674895E-2],"split_indices":[24,0,1,1,0,20,0,0,0,0,0,0,0,0,0],"split_type":[0,0,0,0,0,0,0,0,0,0,0,0,0,0,0],"sum_hessian":[1.425E3,8.81E2,5.44E2,5.71E2,3.1E2,2.98E2,2.46E2,1.42E2,4.29E2,2.56E2,5.4E1,1.42E2,1.56E2,2.26E2,2E1],"tree_param":{"num_deleted":"0","num_feature":"27","num_nodes":"15","size_leaf_vector":"1"}},{"base_weights":[6.446718E-4,-6.020349E0,9.74471E0,-8.7148285E0,-1.0452276E0,6.9503374E0,1.3087919E1,-3.573634E-1,-2.2893836E-1,-7.760953E-2,1.8533956E-1,1.4462315E-1,2.653721E-1,4.1827363E-1,9.682707E-2],"categories":[],"categories_nodes":[],"categories_segments":[],"categories_sizes":[],"default_left":[0,0,0,0,0,0,0,0,0,0,0,0,0,0,0],"id":2,"left_children":[1,3,5,7,9,11,13,-1,-1,-1,-1,-1,-1,-1,-1],"loss_changes":[8.372059E4,1.1814422E4,5.0005234E3,1.8907422E3,3.479414E3,1.1642324E3,2.0362227E3,0E0,0E0,0E0,0E0,0E0,0E0,0E0,0E0],"parents":[2147483647,0,0,1,1,2,2,3,3,4,4,5,5,6,6],"right_children":[2,4,6,8,10,12,14,-1,-1,-1,-1,-1,-1,-1,-1],"split_conditions":[1E0,3.02E2,4.52E2,3.5E2,4.12E2,1E0,4.91E2,-3.573634E-1,-2.2893836E-1,-7.760953E-2,1.8533956E-1,1.4462315E-1,2.653721E-1,4.1827363E-1,9.682707E-2],"split_indices":[24,0,1,1,0,20,0,0,0,0,0,0,0,0,0],"split_type":[0,0,0,0,0,0,0,0,0,0,0,0,0,0,0],"sum_hessian":[1.425E3,8.81E2,5.44E2,5.71E2,3.1E2,2.98E2,2.46E2,1.42E2,4.29E2,2.56E2,5.4E1,1.42E2,1.56E2,2.26E2,2E1],"tree_param":{"num_deleted":"0","num_feature":"27","num_nodes":"15","size_leaf_vector":"1"}},{"base_weights":[9.3879673E-4,-5.8402805E0,9.454066E0,-7.33896E0,2.5802515E0,6.7431993E0,1.2697367E1,-2.8813002E-1,-1.527039E-1,5.9898067E-3,1.7988047E-1,1.403148E-1,2.5746164E-1,4.0578067E-1,9.406059E-2],"categories":[],"categories_nodes":[],"categories_segments":[],"categories_sizes":[],"default_left":[0,0,0,0,0,0,0,0,0,0,0,0,0,0,0],"id":3,"left_children":[1,3,5,7,9,11,13,-1,-1,-1,-1,-1,-1,-1,-1],"loss_changes":[7.879579E4,1.1149498E4,4.7061055E3,3.7668438E3,1.0884291E3,1.0958057E3,1.9147266E3,0E0,0E0,0E0,0E0,0E0,0E0,0E0,0E0],"parents":[2147483647,0,0,1,1,2,2,3,3,4,4,5,5,6,6],"right_children":[2,4,6,8,10,12,14,-1,-1,-1,-1,-1,-1,-1,-1],"split_conditions":[1E0,3.67E2,4.52E2,3.54E2,4.12E2,1E0,4.91E2,-2.8813002E-1,-1.527039E-1,5.9898067E-3,1.7988047E-1,1.403148E-1,2.5746164E-1,4.0578067E-1,9.406059E-2],"split_indices":[24,0,1,1,0,20,0,0,0,0,0,0,0,0,0],"split_type":[0,0,0,0,0,0,0,0,0,0,0,0,0,0,0],"sum_hessian":[1.425E3,8.81E2,5.44E2,7.48E2,1.33E2,2.98E2,2.46E2,3.71E2,3.77E2,7.9E1,5.4E1,1.42E2,1.56E2,2.26E2,2E1],"tree_param":{"num_deleted":"0","num_feature":"27","num_nodes":"15","size_leaf_vector":"1"}},{"base_weights":[1.3614817E-3,-5.665361E0,9.1720915E0,-8.214134E0,-9.593696E-1,6.542234E0,1.231847E1,-3.3813405E-1,-2.1535201E-1,-7.219043E-2,1.745822E-1,1.361348E-1,2.4978702E-1,3.936609E-1,9.137314E-2],"categories":[],"categories_nodes":[],"categories_segments":[],"categories_sizes":[],"default_left":[0,0,0,0,0,0,0,0,0,0,0,0,0,0,0],"id":4,"left_children":[1,3,5,7,9,11,13,-1,-1,-1,-1,-1,-1,-1,-1],"loss_changes":[7.415831E4,1.0571273E4,4.4290195E3,1.7301797E3,3.0645215E3,1.0313994E3,1.8004805E3,0E0,0E0,0E0,0E0,0E0,0E0,0E0,0E0],"parents":[2147483647,0,0,1,1,2,2,3,3,4,4,5,5,6,6],"right_children":[2,4,6,8,10,12,14,-1,-1,-1,-1,-1,-1,-1,-1],"split_conditions":[1E0,3.02E2,4.52E2,3.5E2,4.12E2,1E0,4.91E2,-3.3813405E-1,-2.1535201E-1,-7.219043E-2,1.745822E-1,1.361348E-1,2.4978702E-1,3.936609E-1,9.137314E-2],"split_indices":[24,0,1,1,0,20,0,0,0,0,0,0,0,0,0],"split_type":[0,0,0,0,0,0,0,0,0,0,0,0,0,0,0],"sum_hessian":[1.425E3,8.81E2,5.44E2,5.71E2,3.1E2,2.98E2,2.46E2,1.42E2,4.29E2,2.56E2,5.4E1,1.42E2,1.56E2,2.26E2,2E1],"tree_param":{"num_deleted":"0","num_feature":"27","num_nodes":"15","size_leaf_vector":"1"}},{"base_weights":[1.6149799E-3,-5.4959116E0,8.898527E0,-6.9148693E0,2.4764383E0,6.347258E0,1.1950879E1,-2.716601E-1,-1.4370249E-1,7.951045E-3,1.6943997E-1,1.3207932E-1,2.4234115E-1,3.8190308E-1,8.876247E-2],"categories":[],"categories_nodes":[],"categories_segments":[],"categories_sizes":[],"default_left":[0,0,0,0,0,0,0,0,0,0,0,0,0,0,0],"id":5,"left_children":[1,3,5,7,9,11,13,-1,-1,-1,-1,-1,-1,-1,-1],"loss_changes":[6.979601E4,9.994686E3,4.1682617E3,3.3631055E3,9.3832556E2,9.707803E2,1.6930391E3,0E0,0E0,0E0,0E0,0E0,0E0,0E0,0E0],"parents":[2147483647,0,0,1,1,2,2,3,3,4,4,5,5,6,6],"right_children":[2,4,6,8,10,12,14,-1,-1,-1,-1,-1,-1,-1,-1],"split_conditions":[1E0,3.67E2,4.52E2,3.54E2,4.12E2,1E0,4.91E2,-2.716601E-1,-1.4370249E-1,7.951045E-3,1.6943997E-1,1.3207932E-1,2.4234115E-1,3.8190308E-1,8.876247E-2],"split_indices":[24,0,1,1,0,20,0,0,0,0,0,0,0,0,0],"split_type":[0,0,0,0,0,0,0,0,0,0,0,0,0,0,0],"sum_hessian":[1.425E3,8.81E2,5.44E2,7.48E2,1.33E2,2.98E2,2.46E2,3.71E2,3.77E2,7.9E1,5.4E1,1.42E2,1.56E2,2.26E2,2E1],"tree_param":{"num_deleted":"0","num_feature":"27","num_nodes":"15","size_leaf_vector":"1"}},{"base_weights":[1.991827E-3,-5.331305E0,8.6331215E0,-7.7422338E0,-8.799136E-1,6.4510164E0,1.2030244E1,-3.1996813E-1,-2.0256113E-1,-6.713735E-2,1.644492E-1,-2.2955108E-1,1.9935437E-1,3.890708E-1,8.62264E-2],"categories":[],"categories_nodes":[],"categories_segments":[],"categories_sizes":[],"default_left":[0,0,0,0,0,0,0,0,0,0,0,0,0,0,0],"id":6,"left_children":[1,3,5,7,9,11,13,-1,-1,-1,-1,-1,-1,-1,-1],"loss_changes":[6.568819E4,9.458805E3,3.962414E3,1.5837578E3,2.6989902E3,9.652539E2,1.7849746E3,0E0,0E0,0E0,0E0,0E0,0E0,0E0,0E0],"parents":[2147483647,0,0,1,1,2,2,3,3,4,4,5,5,6,6],"right_children":[2,4,6,8,10,12,14,-1,-1,-1,-1,-1,-1,-1,-1],"split_conditions":[1E0,3.02E2,3.97E2,3.5E2,4.12E2,2.08E2,4.91E2,-3.1996813E-1,-2.0256113E-1,-6.713735E-2,1.644492E-1,-2.2955108E-1,1.9935437E-1,3.890708E-1,8.62264E-2],"split_indices":[24,0,0,1,0,0,0,0,0,0,0,0,0,0,0],"split_type":[0,0,0,0,0,0,0,0,0,0,0,0,0,0,0],"sum_hessian":[1.425E3,8.81E2,5.44E2,5.71E2,3.1E2,3.33E2,2.11E2,1.42E2,4.29E2,2.56E2,5.4E1,4E0,3.29E2,1.91E2,2E1],"tree_param":{"num_deleted":"0","num_feature":"27","num_nodes":"15","size_leaf_vector":"1"}},{"base_weights":[1.9456896E-3,-5.1718483E0,8.374945E0,-6.5154324E0,2.3767788E0,5.95499E0,1.1270457E1,-2.5612724E-1,-1.352445E-1,1.0501103E-1,-9.59385E-2,1.2252595E-1,2.2863089E-1,3.6015448E-1,8.376282E-2],"categories":[],"categories_nodes":[],"categories_segments":[],"categories_sizes":[],"default_left":[0,0,0,0,0,0,0,0,0,0,0,0,0,0,0],"id":7,"left_children":[1,3,5,7,9,11,13,-1,-1,-1,-1,-1,-1,-1,-1],"loss_changes":[6.1817883E4,8.960916E3,3.7517031E3,3.001713E3,8.505303E2,9.0080273E2,1.5050391E3,0E0,0E0,0E0,0E0,0E0,0E0,0E0,0E0],"parents":[2147483647,0,0,1,1,2,2,3,3,4,4,5,5,6,6],"right_children":[2,4,6,8,10,12,14,-1,-1,-1,-1,-1,-1,-1,-1],"split_conditions":[1E0,3.67E2,4.52E2,3.54E2,4.97E2,1E0,4.91E2,-2.5612724E-1,-1.352445E-1,1.0501103E-1,-9.59385E-2,1.2252595E-1,2.2863089E-1,3.6015448E-1,8.376282E-2],"split_indices":[24,0,1,1,1,20,0,0,0,0,0,0,0,0,0],"split_type":[0,0,0,0,0,0,0,0,0,0,0,0,0,0,0],"sum_hessian":[1.425E3,8.81E2,5.44E2,7.48E2,1.33E2,2.98E2,2.46E2,3.71E2,3.77E2,1.11E2,2.2E1,1.42E2,1.56E2,2.26E2,2E1],"tree_param":{"num_deleted":"0","num_feature":"27","num_nodes":"15","size_leaf_vector":"1"}},{"base_weights":[2.1764827E-3,-5.017127E0,8.125155E0,-7.2974687E0,-8.069252E-1,6.054159E0,1.1349625E1,-3.028062E-1,-1.9051924E-1,-6.2789075E-2,1.5651236E-1,-2.2698249E-1,1.8726543E-1,3.6705652E-1,8.136959E-2],"categories":[],"categories_nodes":[],"categories_segments":[],"categories_sizes":[],"default_left":[0,0,0,0,0,0,0,0,0,0,0,0,0,0,0],"id":8,"left_children":[1,3,5,7,9,11,13,-1,-1,-1,-1,-1,-1,-1,-1],"loss_changes":[5.8181203E4,8.461926E3,3.5707188E3,1.4502109E3,2.4202778E3,9.0256934E2,1.5884316E3,0E0,0E0,0E0,0E0,0E0,0E0,0E0,0E0],"parents":[2147483647,0,0,1,1,2,2,3,3,4,4,5,5,6,6],"right_children":[2,4,6,8,10,12,14,-1,-1,-1,-1,-1,-1,-1,-1],"split_conditions":[1E0,3.02E2,3.97E2,3.5E2,4.12E2,2.08E2,4.91E2,-3.028062E-1,-1.9051924E-1,-6.2789075E-2,1.5651236E-1,-2.2698249E-1,1.8726543E-1,3.6705652E-1,8.136959E-2],"split_indices":[24,0,0,1,0,0,0,0,0,0,0,0,0,0,0],"split_type":[0,0,0,0,0,0,0,0,0,0,0,0,0,0,0],"sum_hessian":[1.425E3,8.81E2,5.44E2,5.71E2,3.1E2,3.33E2,2.11E2,1.42E2,4.29E2,2.56E2,5.4E1,4E0,3.29E2,1.91E2,2E1],"tree_param":{"num_deleted":"0","num_feature":"27","num_nodes":"15","size_leaf_vector":"1"}},{"base_weights":[2.1176385E-3,-4.867066E0,7.88215E0,-6.1391234E0,2.2794883E0,5.5867968E0,1.0628824E1,-2.4147803E-1,-1.2729174E-1,1.0058364E-1,-9.13837E-2,1.1360709E-1,2.1571817E-1,3.39646E-1,7.9044744E-2],"categories":[],"categories_nodes":[],"categories_segments":[],"categories_sizes":[],"default_left":[0,0,0,0,0,0,0,0,0,0,0,0,0,0,0],"id":9,"left_children":[1,3,5,7,9,11,13,-1,-1,-1,-1,-1,-1,-1,-1],"loss_changes":[5.4753016E4,8.0321055E3,3.3766172E3,2.678541E3,7.7615424E2,8.358887E2,1.3379395E3,0E0,0E0,0E0,0E0,0E0,0E0,0E0,0E0],"parents":[2147483647,0,0,1,1,2,2,3,3,4,4,5,5,6,6],"right_children":[2,4,6,8,10,12,14,-1,-1,-1,-1,-1,-1,-1,-1],"split_conditions":[1E0,3.67E2,4.52E2,3.54E2,4.97E2,1E0,4.91E2,-2.4147803E-1,-1.2729174E-1,1.0058364E-1,-9.13837E-2,1.1360709E-1,2.1571817E-1,3.39646E-1,7.9044744E-2],"split_indices":[24,0,1,1,1,20,0,0,0,0,0,0,0,0,0],"split_type":[0,0,0,0,0,0,0,0,0,0,0,0,0,0,0],"sum_hessian":[1.425E3,8.81E2,5.44E2,7.48E2,1.33E2,2.98E2,2.46E2,3.71E2,3.77E2,1.11E2,2.2E1,1.42E2,1.56E2,2.26E2,2E1],"tree_param":{"num_deleted":"0","num_feature":"27","num_nodes":"15","size_leaf_vector":"1"}},{"base_weights":[2.3267914E-3,-4.7214613E0,7.6470585E0,-6.8782763E0,-7.394046E-1,5.681527E0,1.0707626E1,-2.8659183E-1,-1.7918275E-1,-5.8717232E-2,1.4893968E-1,-2.2426148E-1,1.7590971E-1,3.462916E-1,7.678633E-2],"categories":[],"categories_nodes":[],"categories_segments":[],"categories_sizes":[],"default_left":[0,0,0,0,0,0,0,0,0,0,0,0,0,0,0],"id":10,"left_children":[1,3,5,7,9,11,13,-1,-1,-1,-1,-1,-1,-1,-1],"loss_changes":[5.1531945E4,7.5700215E3,3.2176875E3,1.3283652E3,2.1701138E3,8.441885E2,1.4135684E3,0E0,0E0,0E0,0E0,0E0,0E0,0E0,0E0],"parents":[2147483647,0,0,1,1,2,2,3,3,4,4,5,5,6,6],"right_children":[2,4,6,8,10,12,14,-1,-1,-1,-1,-1,-1,-1,-1],"split_conditions":[1E0,3.02E2,3.97E2,3.5E2,4.12E2,2.08E2,4.91E2,-2.8659183E-1,-1.7918275E-1,-5.8717232E-2,1.4893968E-1,-2.2426148E-1,1.7590971E-1,3.462916E-1,7.678633E-2],"split_indices":[24,0,0,1,0,0,0,0,0,0,0,0,0,0,0],"split_type":[0,0,0,0,0,0,0,0,0,0,0,0,0,0,0],"sum_hessian":[1.425E3,8.81E2,5.44E2,5.71E2,3.1E2,3.33E2,2.11E2,1.42E2,4.29E2,2.56E2,5.4E1,4E0,3.29E2,1.91E2,2E1],"tree_param":{"num_deleted":"0","num_feature":"27","num_nodes":"15","size_leaf_vector":"1"}},{"base_weights":[2.256582E-3,-4.580243E0,7.4183345E0,-5.784603E0,2.1857688E0,5.24121E0,1.0023767E1,-2.2766212E-1,-1.1981406E-1,9.633526E-2,-8.707647E-2,1.052824E-1,2.0355585E-1,3.2030693E-1,7.459245E-2],"categories":[],"categories_nodes":[],"categories_segments":[],"categories_sizes":[],"default_left":[0,0,0,0,0,0,0,0,0,0,0,0,0,0,0],"id":11,"left_children":[1,3,5,7,9,11,13,-1,-1,-1,-1,-1,-1,-1,-1],"loss_changes":[4.8495414E4,7.1998086E3,3.0388926E3,2.3895938E3,7.0847833E2,7.756748E2,1.1894023E3,0E0,0E0,0E0,0E0,0E0,0E0,0E0,0E0],"parents":[2147483647,0,0,1,1,2,2,3,3,4,4,5,5,6,6],"right_children":[2,4,6,8,10,12,14,-1,-1,-1,-1,-1,-1,-1,-1],"split_conditions":[1E0,3.67E2,4.52E2,3.54E2,4.97E2,1E0,4.91E2,-2.2766212E-1,-1.1981406E-1,9.633526E-2,-8.707647E-2,1.052824E-1,2.0355585E-1,3.2030693E-1,7.459245E-2],"split_indices":[24,0,1,1,1,20,0,0,0,0,0,0,0,0,0],"split_type":[0,0,0,0,0,0,0,0,0,0,0,0,0,0,0],"sum_hessian":[1.425E3,8.81E2,5.44E2,7.48E2,1.33E2,2.98E2,2.46E2,3.71E2,3.77E2,1.11E2,2.2E1,1.42E2,1.56E2,2.26E2,2E1],"tree_param":{"num_deleted":"0","num_feature":"27","num_nodes":"15","size_leaf_vector":"1"}},{"base_weights":[2.4452263E-3,-4.443219E0,7.1970754E0,-5.6115284E0,2.1202655E0,5.33165E0,1.0102052E1,-2.208506E-1,-1.16229154E-1,9.3471035E-2,-8.457776E-2,-2.2140595E-1,1.6524291E-1,3.26705E-1,7.2461225E-2],"categories":[],"categories_nodes":[],"categories_segments":[],"categories_sizes":[],"default_left":[0,0,0,0,0,0,0,0,0,0,0,0,0,0,0],"id":12,"left_children":[1,3,5,7,9,11,13,-1,-1,-1,-1,-1,-1,-1,-1],"loss_changes":[4.564246E4,6.7752324E3,2.899504E3,2.248752E3,6.6765924E2,7.898037E2,1.2579902E3,0E0,0E0,0E0,0E0,0E0,0E0,0E0,0E0],"parents":[2147483647,0,0,1,1,2,2,3,3,4,4,5,5,6,6],"right_children":[2,4,6,8,10,12,14,-1,-1,-1,-1,-1,-1,-1,-1],"split_conditions":[1E0,3.67E2,3.97E2,3.54E2,4.97E2,2.08E2,4.91E2,-2.208506E-1,-1.16229154E-1,9.3471035E-2,-8.457776E-2,-2.2140595E-1,1.6524291E-1,3.26705E-1,7.2461225E-2],"split_indices":[24,0,0,1,1,0,0,0,0,0,0,0,0,0,0],"split_type":[0,0,0,0,0,0,0,0,0,0,0,0,0,0,0],"sum_hessian":[1.425E3,8.81E2,5.44E2,7.48E2,1.33E2,3.33E2,2.11E2,3.71E2,3.77E2,1.11E2,2.2E1,4E0,3.29E2,1.91E2,2E1],"tree_param":{"num_deleted":"0","num_feature":"27","num_nodes":"15","size_leaf_vector":"1"}},{"base_weights":[2.3821648E-3,-4.3102946E0,6.981792E0,-6.2993035E0,-6.381933E-1,4.9168487E0,9.453195E0,-2.6469287E-1,-1.6336039E-1,-5.2907623E-2,1.389621E-1,1.7470606E-1,6.539439E-2,3.0207032E-1,7.039088E-2],"categories":[],"categories_nodes":[],"categories_segments":[],"categories_sizes":[],"default_left":[0,0,0,0,0,0,0,0,0,0,0,0,0,0,0],"id":13,"left_children":[1,3,5,7,9,11,13,-1,-1,-1,-1,-1,-1,-1,-1],"loss_changes":[4.295261E4,6.4379688E3,2.7348203E3,1.1847383E3,1.8527487E3,7.2931396E2,1.0573691E3,0E0,0E0,0E0,0E0,0E0,0E0,0E0,0E0],"parents":[2147483647,0,0,1,1,2,2,3,3,4,4,5,5,6,6],"right_children":[2,4,6,8,10,12,14,-1,-1,-1,-1,-1,-1,-1,-1],"split_conditions":[1E0,3.02E2,4.52E2,3.5E2,4.12E2,1E0,4.91E2,-2.6469287E-1,-1.6336039E-1,-5.2907623E-2,1.389621E-1,1.7470606E-1,6.539439E-2,3.0207032E-1,7.039088E-2],"split_indices":[24,0,1,1,0,21,0,0,0,0,0,0,0,0,0],"split_type":[0,0,0,0,0,0,0,0,0,0,0,0,0,0,0],"sum_hessian":[1.425E3,8.81E2,5.44E2,5.71E2,3.1E2,2.98E2,2.46E2,1.42E2,4.29E2,2.56E2,5.4E1,2.23E2,7.5E1,2.26E2,2E1],"tree_param":{"num_deleted":"0","num_feature":"27","num_nodes":"15","size_leaf_vector":"1"}},{"base_weights":[2.500597E-3,-4.181373E0,6.7734623E0,-5.2873807E0,2.031916E0,5.0011387E0,9.533758E0,-2.0819485E-1,-1.0941522E-1,8.9489736E-2,-8.063252E-2,-2.1897343E-1,1.5517053E-1,3.083267E-1,6.837972E-2],"categories":[],"categories_nodes":[],"categories_segments":[],"categories_sizes":[],"default_left":[0,0,0,0,0,0,0,0,0,0,0,0,0,0,0],"id":14,"left_children":[1,3,5,7,9,11,13,-1,-1,-1,-1,-1,-1,-1,-1],"loss_changes":[4.0425266E4,6.071798E3,2.6185352E3,2.0047441E3,6.0951117E2,7.4114453E2,1.1204922E3,0E0,0E0,0E0,0E0,0E0,0E0,0E0,0E0],"parents":[2147483647,0,0,1,1,2,2,3,3,4,4,5,5,6,6],"right_children":[2,4,6,8,10,12,14,-1,-1,-1,-1,-1,-1,-1,-1],"split_conditions":[1E0,3.67E2,3.97E2,3.54E2,4.97E2,2.08E2,4.91E2,-2.0819485E-1,-1.0941522E-1,8.9489736E-2,-8.063252E-2,-2.1897343E-1,1.5517053E-1,3.083267E-1,6.837972E-2],"split_indices":[24,0,0,1,1,0,0,0,0,0,0,0,0,0,0],"split_type":[0,0,0,0,0,0,0,0,0,0,0,0,0,0,0],"sum_hessian":[1.425E3,8.81E2,5.44E2,7.48E2,1.33E2,3.33E2,2.11E2,3.71E2,3.77E2,1.11E2,2.2E1,4E0,3.29E2,1.91E2,2E1],"tree_param":{"num_deleted":"0","num_feature":"27","num_nodes":"15","size_leaf_vector":"1"}},{"base_weights":[2.4284935E-3,-4.056282E0,6.5708327E0,-5.9377804E0,-5.8273476E-1,4.8509135E0,9.249522E0,-2.506055E-1,-1.5361796E-1,-4.9454242E-2,1.3223319E-1,-2.1371807E-1,1.5052953E-1,2.9912508E-1,6.6426E-2],"categories":[],"categories_nodes":[],"categories_segments":[],"categories_sizes":[],"default_left":[0,0,0,0,0,0,0,0,0,0,0,0,0,0,0],"id":15,"left_children":[1,3,5,7,9,11,13,-1,-1,-1,-1,-1,-1,-1,-1],"loss_changes":[3.8042746E4,5.760827E3,2.4660176E3,1.0864062E3,1.6613457E3,7.026284E2,1.0537539E3,0E0,0E0,0E0,0E0,0E0,0E0,0E0,0E0],"parents":[2147483647,0,0,1,1,2,2,3,3,4,4,5,5,6,6],"right_children":[2,4,6,8,10,12,14,-1,-1,-1,-1,-1,-1,-1,-1],"split_conditions":[1E0,3.02E2,3.97E2,3.5E2,4.12E2,2.08E2,4.91E2,-2.506055E-1,-1.5361796E-1,-4.9454242E-2,1.3223319E-1,-2.1371807E-1,1.5052953E-1,2.9912508E-1,6.6426E-2],"split_indices":[24,0,0,1,0,0,0,0,0,0,0,0,0,0,0],"split_type":[0,0,0,0,0,0,0,0,0,0,0,0,0,0,0],"sum_hessian":[1.425E3,8.81E2,5.44E2,5.71E2,3.1E2,3.33E2,2.11E2,1.42E2,4.29E2,2.56E2,5.4E1,4E0,3.29E2,1.91E2,2E1],"tree_param":{"num_deleted":"0","num_feature":"27","num_nodes":"15","size_leaf_vector":"1"}},{"base_weights":[2.3420034E-3,-3.9349585E0,6.3742623E0,-4.981999E0,1.9468931E0,5.732193E0,1.3380984E1,-1.9625899E-1,-1.0300837E-1,8.567143E-2,-7.6899596E-2,8.861355E-2,2.2523932E-1,6.6836953E-1,6.452813E-2],"categories":[],"categories_nodes":[],"categories_segments":[],"categories_sizes":[],"default_left":[0,0,0,0,0,0,0,0,0,0,0,0,0,0,0],"id":16,"left_children":[1,3,5,7,9,11,13,-1,-1,-1,-1,-1,-1,-1,-1],"loss_changes":[3.5800805E4,5.4415264E3,2.3751445E3,1.7866973E3,5.565832E2,2.4496836E3,4.448703E3,0E0,0E0,0E0,0E0,0E0,0E0,0E0,0E0],"parents":[2147483647,0,0,1,1,2,2,3,3,4,4,5,5,6,6],"right_children":[2,4,6,8,10,12,14,-1,-1,-1,-1,-1,-1,-1,-1],"split_conditions":[1E0,3.67E2,4.53E2,3.54E2,4.97E2,1E0,4.91E2,-1.9625899E-1,-1.0300837E-1,8.567143E-2,-7.6899596E-2,8.861355E-2,2.2523932E-1,6.6836953E-1,6.452813E-2],"split_indices":[24,0,0,1,1,20,0,0,0,0,0,0,0,0,0],"split_type":[0,0,0,0,0,0,0,0,0,0,0,0,0,0,0],"sum_hessian":[1.425E3,8.81E2,5.44E2,7.48E2,1.33E2,5E2,4.4E1,3.71E2,3.77E2,1.11E2,2.2E1,1.96E2,3.04E2,2.4E1,2E1],"tree_param":{"num_deleted":"0","num_feature":"27","num_nodes":"15","size_leaf_vector":"1"}},{"base_weights":[2.8019287E-3,-3.8172393E0,6.1849556E0,-5.5970435E0,-5.3149927E-1,4.2995996E0,8.442187E0,-2.3729332E-1,-1.4444725E-1,-4.622065E-2,1.258149E-1,1.547896E-1,5.1243953E-2,2.2173508E-1,3.8987526E-1],"categories":[],"categories_nodes":[],"categories_segments":[],"categories_sizes":[],"default_left":[0,0,0,0,0,0,0,0,0,0,0,0,0,0,0],"id":17,"left_children":[1,3,5,7,9,11,13,-1,-1,-1,-1,-1,-1,-1,-1],"loss_changes":[3.370014E4,5.1549385E3,2.2830488E3,9.9658984E2,1.489543E3,6.5759814E2,1.086082E3,0E0,0E0,0E0,0E0,0E0,0E0,0E0,0E0],"parents":[2147483647,0,0,1,1,2,2,3,3,4,4,5,5,6,6],"right_children":[2,4,6,8,10,12,14,-1,-1,-1,-1,-1,-1,-1,-1],"split_conditions":[1E0,3.02E2,4.52E2,3.5E2,4.12E2,1E0,4.53E2,-2.3729332E-1,-1.4444725E-1,-4.622065E-2,1.258149E-1,1.547896E-1,5.1243953E-2,2.2173508E-1,3.8987526E-1],"split_indices":[24,0,1,1,0,21,0,0,0,0,0,0,0,0,0],"split_type":[0,0,0,0,0,0,0,0,0,0,0,0,0,0,0],"sum_hessian":[1.425E3,8.81E2,5.44E2,5.71E2,3.1E2,2.98E2,2.46E2,1.42E2,4.29E2,2.56E2,5.4E1,2.23E2,7.5E1,2.02E2,4.4E1],"tree_param":{"num_deleted":"0","num_feature":"27","num_nodes":"15","size_leaf_vector":"1"}},{"base_weights":[3.0792672E-3,-3.7030647E0,6.0009065E0,-4.694294E0,1.8650994E0,4.1713014E0,8.191397E0,-1.8500204E-1,-9.6984185E-2,8.201009E-2,-7.3366545E-2,-2.1318795E-1,1.3044919E-1,2.1511574E-1,3.7843895E-1],"categories":[],"categories_nodes":[],"categories_segments":[],"categories_sizes":[],"default_left":[0,0,0,0,0,0,0,0,0,0,0,0,0,0,0],"id":18,"left_children":[1,3,5,7,9,11,13,-1,-1,-1,-1,-1,-1,-1,-1],"loss_changes":[3.1720506E4,4.8768037E3,2.1500488E3,1.5918789E3,5.083952E2,6.2776025E2,1.0248867E3,0E0,0E0,0E0,0E0,0E0,0E0,0E0,0E0],"parents":[2147483647,0,0,1,1,2,2,3,3,4,4,5,5,6,6],"right_children":[2,4,6,8,10,12,14,-1,-1,-1,-1,-1,-1,-1,-1],"split_conditions":[1E0,3.67E2,4.52E2,3.54E2,4.97E2,2.08E2,4.53E2,-1.8500204E-1,-9.6984185E-2,8.201009E-2,-7.3366545E-2,-2.1318795E-1,1.3044919E-1,2.1511574E-1,3.7843895E-1],"split_indices":[24,0,1,1,1,0,0,0,0,0,0,0,0,0,0],"split_type":[0,0,0,0,0,0,0,0,0,0,0,0,0,0,0],"sum_hessian":[1.425E3,8.81E2,5.44E2,7.48E2,1.33E2,2.98E2,2.46E2,3.71E2,3.77E2,1.11E2,2.2E1,4E0,2.94E2,2.02E2,4.4E1],"tree_param":{"num_deleted":"0","num_feature":"27","num_nodes":"15","size_leaf_vector":"1"}},{"base_weights":[3.1537206E-3,-3.5922828E0,5.8218174E0,-5.2758965E0,-4.8418167E-1,4.0458865E0,7.9480586E0,-2.2471309E-1,-1.3581492E-1,-4.3192834E-2,1.1969352E-1,1.4636274E-1,4.6136163E-2,2.086941E-1,3.6733803E-1],"categories":[],"categories_nodes":[],"categories_segments":[],"categories_sizes":[],"default_left":[0,0,0,0,0,0,0,0,0,0,0,0,0,0,0],"id":19,"left_children":[1,3,5,7,9,11,13,-1,-1,-1,-1,-1,-1,-1,-1],"loss_changes":[2.985374E4,4.6128115E3,2.0257949E3,9.1452344E2,1.3353407E3,6.1706396E2,9.671416E2,0E0,0E0,0E0,0E0,0E0,0E0,0E0,0E0],"parents":[2147483647,0,0,1,1,2,2,3,3,4,4,5,5,6,6],"right_children":[2,4,6,8,10,12,14,-1,-1,-1,-1,-1,-1,-1,-1],"split_conditions":[1E0,3.02E2,4.52E2,3.5E2,4.12E2,1E0,4.53E2,-2.2471309E-1,-1.3581492E-1,-4.3192834E-2,1.1969352E-1,1.4636274E-1,4.6136163E-2,2.086941E-1,3.6733803E-1],"split_indices":[24,0,1,1,0,21,0,0,0,0,0,0,0,0,0],"split_type":[0,0,0,0,0,0,0,0,0,0,0,0,0,0,0],"sum_hessian":[1.425E3,8.81E2,5.44E2,5.71E2,3.1E2,2.98E2,2.46E2,1.42E2,4.29E2,2.56E2,5.4E1,2.23E2,7.5E1,2.02E2,4.4E1],"tree_param":{"num_deleted":"0","num_feature":"27","num_nodes":"15","size_leaf_vector":"1"}},{"base_weights":[3.3985781E-3,-3.4848368E0,5.6485734E0,-4.423243E0,1.7864398E0,3.3933532E0,7.2356777E0,-1.7438543E-1,-9.131981E-2,7.8499906E-2,-7.002184E-2,7.349125E-2,2.7841803E-1,2.0272481E-1,4.9429116E-1],"categories":[],"categories_nodes":[],"categories_segments":[],"categories_sizes":[],"default_left":[0,0,0,0,0,0,0,0,0,0,0,0,0,0,0],"id":20,"left_children":[1,3,5,7,9,11,13,-1,-1,-1,-1,-1,-1,-1,-1],"loss_changes":[2.8100047E4,4.370802E3,1.9261504E3,1.4178486E3,4.6451324E2,1.2383572E3,1.2982402E3,0E0,0E0,0E0,0E0,0E0,0E0,0E0,0E0],"parents":[2147483647,0,0,1,1,2,2,3,3,4,4,5,5,6,6],"right_children":[2,4,6,8,10,12,14,-1,-1,-1,-1,-1,-1,-1,-1],"split_conditions":[1E0,3.67E2,1E0,3.54E2,4.97E2,4.53E2,4.39E2,-1.7438543E-1,-9.131981E-2,7.8499906E-2,-7.002184E-2,7.349125E-2,2.7841803E-1,2.0272481E-1,4.9429116E-1],"split_indices":[24,0,20,1,1,0,0,0,0,0,0,0,0,0,0],"split_type":[0,0,0,0,0,0,0,0,0,0,0,0,0,0,0],"sum_hessian":[1.425E3,8.81E2,5.44E2,7.48E2,1.33E2,2.26E2,3.18E2,3.71E2,3.77E2,1.11E2,2.2E1,1.96E2,3E1,3.04E2,1.4E1],"tree_param":{"num_deleted":"0","num_feature":"27","num_nodes":"15","size_leaf_vector":"1"}},{"base_weights":[3.8517755E-3,-3.3805835E0,5.481041E0,-4.9732137E0,-4.4050246E-1,3.9919202E0,7.8012543E0,-2.1282388E-1,-1.2768961E-1,-4.0357806E-2,1.1385579E-1,-2.1214524E-1,1.24423526E-1,2.559794E-1,2.2282485E-2],"categories":[],"categories_nodes":[],"categories_segments":[],"categories_sizes":[],"default_left":[0,0,0,0,0,0,0,0,0,0,0,0,0,0,0],"id":21,"left_children":[1,3,5,7,9,11,13,-1,-1,-1,-1,-1,-1,-1,-1],"loss_changes":[2.6452564E4,4.127741E3,1.851875E3,8.3951465E2,1.1969441E3,6.040449E2,1.0881201E3,0E0,0E0,0E0,0E0,0E0,0E0,0E0,0E0],"parents":[2147483647,0,0,1,1,2,2,3,3,4,4,5,5,6,6],"right_children":[2,4,6,8,10,12,14,-1,-1,-1,-1,-1,-1,-1,-1],"split_conditions":[1E0,3.02E2,3.97E2,3.5E2,4.12E2,2.08E2,4.91E2,-2.1282388E-1,-1.2768961E-1,-4.0357806E-2,1.1385579E-1,-2.1214524E-1,1.24423526E-1,2.559794E-1,2.2282485E-2],"split_indices":[24,0,0,1,0,0,0,0,0,0,0,0,0,0,0],"split_type":[0,0,0,0,0,0,0,0,0,0,0,0,0,0,0],"sum_hessian":[1.425E3,8.81E2,5.44E2,5.71E2,3.1E2,3.33E2,2.11E2,1.42E2,4.29E2,2.56E2,5.4E1,4E0,3.29E2,1.91E2,2E1],"tree_param":{"num_deleted":"0","num_feature":"27","num_nodes":"15","size_leaf_vector":"1"}},{"base_weights":[3.682637E-3,-3.2794688E0,5.3169594E0,-4.7013903E0,-1.403895E-1,4.7600007E0,1.1399611E1,-1.8437697E-1,-1.0954962E-1,-5.915828E-2,6.167044E-2,6.7107804E-2,1.9122155E-1,5.973965E-1,2.1645866E-2],"categories":[],"categories_nodes":[],"categories_segments":[],"categories_sizes":[],"default_left":[0,0,0,0,0,0,0,0,0,0,0,0,0,0,0],"id":22,"left_children":[1,3,5,7,9,11,13,-1,-1,-1,-1,-1,-1,-1,-1],"loss_changes":[2.4892998E4,3.936169E3,1.7920801E3,8.979834E2,1.1141868E3,2.026E3,4.0765366E3,0E0,0E0,0E0,0E0,0E0,0E0,0E0,0E0],"parents":[2147483647,0,0,1,1,2,2,3,3,4,4,5,5,6,6],"right_children":[2,4,6,8,10,12,14,-1,-1,-1,-1,-1,-1,-1,-1],"split_conditions":[1E0,4.05E2,4.53E2,2.61E2,3.67E2,1E0,4.91E2,-1.8437697E-1,-1.0954962E-1,-5.915828E-2,6.167044E-2,6.7107804E-2,1.9122155E-1,5.973965E-1,2.1645866E-2],"split_indices":[24,1,0,0,0,20,0,0,0,0,0,0,0,0,0],"split_type":[0,0,0,0,0,0,0,0,0,0,0,0,0,0,0],"sum_hessian":[1.425E3,8.81E2,5.44E2,6.06E2,2.75E2,5E2,4.4E1,2.53E2,3.53E2,1.5E2,1.25E2,1.96E2,3.04E2,2.4E1,2E1],"tree_param":{"num_deleted":"0","num_feature":"27","num_nodes":"15","size_leaf_vector":"1"}},{"base_weights":[3.983016E-3,-3.1814146E0,5.1590595E0,-4.560832E0,-1.3616863E-1,3.5262978E0,7.1146736E0,-1.7886743E-1,-1.06272385E-1,-5.7395287E-2,5.9835017E-2,-2.0866436E-1,1.1076004E-1,2.3030023E-1,2.1027396E-2],"categories":[],"categories_nodes":[],"categories_segments":[],"categories_sizes":[],"default_left":[0,0,0,0,0,0,0,0,0,0,0,0,0,0,0],"id":23,"left_children":[1,3,5,7,9,11,13,-1,-1,-1,-1,-1,-1,-1,-1],"loss_changes":[2.3432713E4,3.7043662E3,1.715124E3,8.4520703E2,1.0488114E3,5.4500366E2,8.849414E2,0E0,0E0,0E0,0E0,0E0,0E0,0E0,0E0],"parents":[2147483647,0,0,1,1,2,2,3,3,4,4,5,5,6,6],"right_children":[2,4,6,8,10,12,14,-1,-1,-1,-1,-1,-1,-1,-1],"split_conditions":[1E0,4.05E2,4.52E2,2.61E2,3.67E2,2.08E2,4.91E2,-1.7886743E-1,-1.06272385E-1,-5.7395287E-2,5.9835017E-2,-2.0866436E-1,1.1076004E-1,2.3030023E-1,2.1027396E-2],"split_indices":[24,1,1,0,0,0,0,0,0,0,0,0,0,0,0],"split_type":[0,0,0,0,0,0,0,0,0,0,0,0,0,0,0],"sum_hessian":[1.425E3,8.81E2,5.44E2,6.06E2,2.75E2,2.98E2,2.46E2,2.53E2,3.53E2,1.5E2,1.25E2,4E0,2.94E2,2.26E2,2E1],"tree_param":{"num_deleted":"0","num_feature":"27","num_nodes":"15","size_leaf_vector":"1"}},{"base_weights":[3.7726942E-3,-3.086293E0,5.004569E0,-4.5547214E0,-3.7559357E-1,4.461529E0,1.0939207E1,-1.6098976E-1,-8.442395E-2,-3.6517788E-2,1.06923334E-1,6.1010398E-2,1.8045157E-1,5.735588E-1,2.0426637E-2],"categories":[],"categories_nodes":[],"categories_segments":[],"categories_sizes":[],"default_left":[0,0,0,0,0,0,0,0,0,0,0,0,0,0,0],"id":24,"left_children":[1,3,5,7,9,11,13,-1,-1,-1,-1,-1,-1,-1,-1],"loss_changes":[2.2051125E4,3.5090635E3,1.7075928E3,7.929453E2,1.0355883E3,1.8773994E3,3.7628018E3,0E0,0E0,0E0,0E0,0E0,0E0,0E0,0E0],"parents":[2147483647,0,0,1,1,2,2,3,3,4,4,5,5,6,6],"right_children":[2,4,6,8,10,12,14,-1,-1,-1,-1,-1,-1,-1,-1],"split_conditions":[1E0,3.02E2,4.53E2,1E0,4.12E2,1E0,4.91E2,-1.6098976E-1,-8.442395E-2,-3.6517788E-2,1.06923334E-1,6.1010398E-2,1.8045157E-1,5.735588E-1,2.0426637E-2],"split_indices":[24,0,0,20,0,20,0,0,0,0,0,0,0,0,0],"split_type":[0,0,0,0,0,0,0,0,0,0,0,0,0,0,0],"sum_hessian":[1.425E3,8.81E2,5.44E2,5.71E2,3.1E2,5E2,4.4E1,3.88E2,1.83E2,2.56E2,5.4E1,1.96E2,3.04E2,2.4E1,2E1],"tree_param":{"num_deleted":"0","num_feature":"27","num_nodes":"15","size_leaf_vector":"1"}},{"base_weights":[4.122651E-3,-2.9939027E0,4.855965E0,-4.3016815E0,-1.0688914E-1,4.328165E0,1.0624231E1,-1.912844E-1,-1.096343E-1,-5.3671774E-2,5.7296794E-2,5.918934E-2,1.750558E-1,5.570403E-1,1.984304E-2],"categories":[],"categories_nodes":[],"categories_segments":[],"categories_sizes":[],"default_left":[0,0,0,0,0,0,0,0,0,0,0,0,0,0,0],"id":25,"left_children":[1,3,5,7,9,11,13,-1,-1,-1,-1,-1,-1,-1,-1],"loss_changes":[2.075706E4,3.3295972E3,1.6132646E3,7.916592E2,9.397664E2,1.7667041E3,3.54912E3,0E0,0E0,0E0,0E0,0E0,0E0,0E0,0E0],"parents":[2147483647,0,0,1,1,2,2,3,3,4,4,5,5,6,6],"right_children":[2,4,6,8,10,12,14,-1,-1,-1,-1,-1,-1,-1,-1],"split_conditions":[1E0,4.05E2,4.53E2,2.5E2,3.67E2,1E0,4.91E2,-1.912844E-1,-1.096343E-1,-5.3671774E-2,5.7296794E-2,5.918934E-2,1.750558E-1,5.570403E-1,1.984304E-2],"split_indices":[24,1,0,0,0,20,0,0,0,0,0,0,0,0,0],"split_type":[0,0,0,0,0,0,0,0,0,0,0,0,0,0,0],"sum_hessian":[1.425E3,8.81E2,5.44E2,6.06E2,2.75E2,5E2,4.4E1,1.42E2,4.64E2,1.5E2,1.25E2,1.96E2,3.04E2,2.4E1,2E1],"tree_param":{"num_deleted":"0","num_feature":"27","num_nodes":"15","size_leaf_vector":"1"}},{"base_weights":[4.359149E-3,-2.9044228E0,4.7117743E0,-4.2948627E0,-3.3774725E-1,4.198787E0,1.0318323E1,-1.5225641E-1,-7.8652725E-2,-3.4108665E-2,1.0208628E-1,5.7422686E-2,1.6982132E-1,5.409975E-1,1.9276122E-2],"categories":[],"categories_nodes":[],"categories_segments":[],"categories_sizes":[],"default_left":[0,0,0,0,0,0,0,0,0,0,0,0,0,0,0],"id":26,"left_children":[1,3,5,7,9,11,13,-1,-1,-1,-1,-1,-1,-1,-1],"loss_changes":[1.9539682E4,3.1462383E3,1.5241436E3,7.335029E2,9.3361505E2,1.6625322E3,3.3475723E3,0E0,0E0,0E0,0E0,0E0,0E0,0E0,0E0],"parents":[2147483647,0,0,1,1,2,2,3,3,4,4,5,5,6,6],"right_children":[2,4,6,8,10,12,14,-1,-1,-1,-1,-1,-1,-1,-1],"split_conditions":[1E0,3.02E2,4.53E2,1E0,4.12E2,1E0,4.91E2,-1.5225641E-1,-7.8652725E-2,-3.4108665E-2,1.0208628E-1,5.7422686E-2,1.6982132E-1,5.409975E-1,1.9276122E-2],"split_indices":[24,0,0,20,0,20,0,0,0,0,0,0,0,0,0],"split_type":[0,0,0,0,0,0,0,0,0,0,0,0,0,0,0],"sum_hessian":[1.425E3,8.81E2,5.44E2,5.71E2,3.1E2,5E2,4.4E1,3.88E2,1.83E2,2.56E2,5.4E1,1.96E2,3.04E2,2.4E1,2E1],"tree_param":{"num_deleted":"0","num_feature":"27","num_nodes":"15","size_leaf_vector":"1"}},{"base_weights":[4.666207E-3,-2.8174746E0,4.5718656E0,-4.0573416E0,-8.045778E-2,3.0617406E0,6.3814015E0,-1.6100654E-1,-9.318793E-2,-5.0185416E-2,5.4855615E-2,-2.0791934E-1,9.662173E-2,2.0657688E-1,1.872539E-2],"categories":[],"categories_nodes":[],"categories_segments":[],"categories_sizes":[],"default_left":[0,0,0,0,0,0,0,0,0,0,0,0,0,0,0],"id":27,"left_children":[1,3,5,7,9,11,13,-1,-1,-1,-1,-1,-1,-1,-1],"loss_changes":[1.8392994E4,2.992773E3,1.4697422E3,7.39333E2,8.4205383E2,4.973208E2,7.1311035E2,0E0,0E0,0E0,0E0,0E0,0E0,0E0,0E0],"parents":[2147483647,0,0,1,1,2,2,3,3,4,4,5,5,6,6],"right_children":[2,4,6,8,10,12,14,-1,-1,-1,-1,-1,-1,-1,-1],"split_conditions":[1E0,4.05E2,4.52E2,2.61E2,3.67E2,2.08E2,4.91E2,-1.6100654E-1,-9.318793E-2,-5.0185416E-2,5.4855615E-2,-2.0791934E-1,9.662173E-2,2.0657688E-1,1.872539E-2],"split_indices":[24,1,1,0,0,0,0,0,0,0,0,0,0,0,0],"split_type":[0,0,0,0,0,0,0,0,0,0,0,0,0,0,0],"sum_hessian":[1.425E3,8.81E2,5.44E2,6.06E2,2.75E2,2.98E2,2.46E2,2.53E2,3.53E2,1.5E2,1.25E2,4E0,2.94E2,2.26E2,2E1],"tree_param":{"num_deleted":"0","num_feature":"27","num_nodes":"15","size_leaf_vector":"1"}},{"base_weights":[4.431005E-3,-2.7332332E0,4.4349184E0,-3.9360402E0,-7.80266E-2,3.9349453E0,9.902729E0,-1.766553E-1,-9.9814154E-2,-4.86898E-2,5.3223014E-2,5.21061E-2,1.6025352E-1,5.194674E-1,1.8190404E-2],"categories":[],"categories_nodes":[],"categories_segments":[],"categories_sizes":[],"default_left":[0,0,0,0,0,0,0,0,0,0,0,0,0,0,0],"id":28,"left_children":[1,3,5,7,9,11,13,-1,-1,-1,-1,-1,-1,-1,-1],"loss_changes":[1.7308344E4,2.816537E3,1.4509316E3,7.020469E2,7.926464E2,1.5399829E3,3.0905718E3,0E0,0E0,0E0,0E0,0E0,0E0,0E0,0E0],"parents":[2147483647,0,0,1,1,2,2,3,3,4,4,5,5,6,6],"right_children":[2,4,6,8,10,12,14,-1,-1,-1,-1,-1,-1,-1,-1],"split_conditions":[1E0,4.05E2,4.53E2,2.5E2,3.67E2,1E0,4.91E2,-1.766553E-1,-9.9814154E-2,-4.86898E-2,5.3223014E-2,5.21061E-2,1.6025352E-1,5.194674E-1,1.8190404E-2],"split_indices":[24,1,0,0,0,20,0,0,0,0,0,0,0,0,0],"split_type":[0,0,0,0,0,0,0,0,0,0,0,0,0,0,0],"sum_hessian":[1.425E3,8.81E2,5.44E2,6.06E2,2.75E2,5E2,4.4E1,1.42E2,4.64E2,1.5E2,1.25E2,1.96E2,3.04E2,2.4E1,2E1],"tree_param":{"num_deleted":"0","num_feature":"27","num_nodes":"15","size_leaf_vector":"1"}},{"base_weights":[4.6327664E-3,-2.6515453E0,4.303246E0,-3.9348867E0,-2.826615E-1,3.81732E0,9.617596E0,-1.4051369E-1,-6.990668E-2,-3.0784098E-2,9.589602E-2,5.055089E-2,1.5546164E-1,5.0450677E-1,1.767068E-2],"categories":[],"categories_nodes":[],"categories_segments":[],"categories_sizes":[],"default_left":[0,0,0,0,0,0,0,0,0,0,0,0,0,0,0],"id":29,"left_children":[1,3,5,7,9,11,13,-1,-1,-1,-1,-1,-1,-1,-1],"loss_changes":[1.6293311E4,2.6802432E3,1.3706846E3,6.7648047E2,8.077423E2,1.4491831E3,2.9150664E3,0E0,0E0,0E0,0E0,0E0,0E0,0E0,0E0],"parents":[2147483647,0,0,1,1,2,2,3,3,4,4,5,5,6,6],"right_children":[2,4,6,8,10,12,14,-1,-1,-1,-1,-1,-1,-1,-1],"split_conditions":[1E0,3.02E2,4.53E2,1E0,4.12E2,1E0,4.91E2,-1.4051369E-1,-6.990668E-2,-3.0784098E-2,9.589602E-2,5.055089E-2,1.5546164E-1,5.0450677E-1,1.767068E-2],"split_indices":[24,0,0,20,0,20,0,0,0,0,0,0,0,0,0],"split_type":[0,0,0,0,0,0,0,0,0,0,0,0,0,0,0],"sum_hessian":[1.425E3,8.81E2,5.44E2,5.71E2,3.1E2,5E2,4.4E1,3.88E2,1.83E2,2.56E2,5.4E1,1.96E2,3.04E2,2.4E1,2E1],"tree_param":{"num_deleted":"0","num_feature":"27","num_nodes":"15","size_leaf_vector":"1"}},{"base_weights":[4.902782E-3,-2.5721633E0,4.175485E0,-3.7123015E0,-5.5365928E-2,2.7560406E0,5.8768554E0,-1.4842567E-1,-8.4465794E-2,-4.5530874E-2,5.0926443E-2,-2.0539303E-1,8.728356E-2,1.5240192E-1,2.8022015E-1],"categories":[],"categories_nodes":[],"categories_segments":[],"categories_sizes":[],"default_left":[0,0,0,0,0,0,0,0,0,0,0,0,0,0,0],"id":30,"left_children":[1,3,5,7,9,11,13,-1,-1,-1,-1,-1,-1,-1,-1],"loss_changes":[1.5337198E4,2.53069E3,1.2999775E3,6.584531E2,7.100578E2,4.6038477E2,6.342539E2,0E0,0E0,0E0,0E0,0E0,0E0,0E0,0E0],"parents":[2147483647,0,0,1,1,2,2,3,3,4,4,5,5,6,6],"right_children":[2,4,6,8,10,12,14,-1,-1,-1,-1,-1,-1,-1,-1],"split_conditions":[1E0,4.05E2,4.52E2,2.61E2,3.67E2,2.08E2,4.53E2,-1.4842567E-1,-8.4465794E-2,-4.5530874E-2,5.0926443E-2,-2.0539303E-1,8.728356E-2,1.5240192E-1,2.8022015E-1],"split_indices":[24,1,1,0,0,0,0,0,0,0,0,0,0,0,0],"split_type":[0,0,0,0,0,0,0,0,0,0,0,0,0,0,0],"sum_hessian":[1.425E3,8.81E2,5.44E2,6.06E2,2.75E2,2.98E2,2.46E2,2.53E2,3.53E2,1.5E2,1.25E2,4E0,2.94E2,2.02E2,4.4E1],"tree_param":{"num_deleted":"0","num_feature":"27","num_nodes":"15","size_leaf_vector":"1"}},{"base_weights":[4.8165903E-3,-2.4952567E0,4.050798E0,-3.7088199E0,-2.552133E-1,2.6729639E0,5.702302E0,-1.3301407E-1,-6.467865E-2,-2.8862128E-2,9.157139E-2,1.0132834E-1,1.68281E-2,1.8529387E-1,9.159491E-3],"categories":[],"categories_nodes":[],"categories_segments":[],"categories_sizes":[],"default_left":[0,0,0,0,0,0,0,0,0,0,0,0,0,0,0],"id":31,"left_children":[1,3,5,7,9,11,13,-1,-1,-1,-1,-1,-1,-1,-1],"loss_changes":[1.4434453E4,2.396713E3,1.2249043E3,6.3439844E2,7.3005383E2,4.430879E2,6.301968E2,0E0,0E0,0E0,0E0,0E0,0E0,0E0,0E0],"parents":[2147483647,0,0,1,1,2,2,3,3,4,4,5,5,6,6],"right_children":[2,4,6,8,10,12,14,-1,-1,-1,-1,-1,-1,-1,-1],"split_conditions":[1E0,3.02E2,4.52E2,1E0,4.12E2,1E0,4.91E2,-1.3301407E-1,-6.467865E-2,-2.8862128E-2,9.157139E-2,1.0132834E-1,1.68281E-2,1.8529387E-1,9.159491E-3],"split_indices":[24,0,1,20,0,21,0,0,0,0,0,0,0,0,0],"split_type":[0,0,0,0,0,0,0,0,0,0,0,0,0,0,0],"sum_hessian":[1.425E3,8.81E2,5.44E2,5.71E2,3.1E2,2.98E2,2.46E2,3.88E2,1.83E2,2.56E2,5.4E1,2.23E2,7.5E1,2.26E2,2E1],"tree_param":{"num_deleted":"0","num_feature":"27","num_nodes":"15","size_leaf_vector":"1"}},{"base_weights":[4.7963797E-3,-2.4205518E0,3.9298465E0,-3.5012639E0,-3.499853E-2,3.4698524E0,8.963784E0,-1.4069366E-1,-7.915769E-2,1.5885611E-1,-1.5525505E-2,4.3175362E-2,1.4310275E-1,4.7657016E-1,8.897803E-3],"categories":[],"categories_nodes":[],"categories_segments":[],"categories_sizes":[],"default_left":[0,0,0,0,0,0,0,0,0,0,0,0,0,0,0],"id":32,"left_children":[1,3,5,7,9,11,13,-1,-1,-1,-1,-1,-1,-1,-1],"loss_changes":[1.358448E4,2.2737583E3,1.2308896E3,6.099888E2,7.1259033E2,1.3159551E3,2.694988E3,0E0,0E0,0E0,0E0,0E0,0E0,0E0,0E0],"parents":[2147483647,0,0,1,1,2,2,3,3,4,4,5,5,6,6],"right_children":[2,4,6,8,10,12,14,-1,-1,-1,-1,-1,-1,-1,-1],"split_conditions":[1E0,4.05E2,4.53E2,2.61E2,4.5E2,1E0,4.91E2,-1.4069366E-1,-7.915769E-2,1.5885611E-1,-1.5525505E-2,4.3175362E-2,1.4310275E-1,4.7657016E-1,8.897803E-3],"split_indices":[24,1,0,0,1,20,0,0,0,0,0,0,0,0,0],"split_type":[0,0,0,0,0,0,0,0,0,0,0,0,0,0,0],"sum_hessian":[1.425E3,8.81E2,5.44E2,6.06E2,2.75E2,5E2,4.4E1,2.53E2,3.53E2,2.2E1,2.53E2,1.96E2,3.04E2,2.4E1,2E1],"tree_param":{"num_deleted":"0","num_feature":"27","num_nodes":"15","size_leaf_vector":"1"}},{"base_weights":[5.069461E-3,-2.3480222E0,3.8131828E0,-3.0082946E0,1.3601263E0,3.366128E0,8.705659E0,-6.5540835E-2,-1.3187446E-1,2.8061655E-1,2.7370248E-2,4.1886695E-2,1.3882369E-1,4.6284494E-1,8.6435815E-3],"categories":[],"categories_nodes":[],"categories_segments":[],"categories_sizes":[],"default_left":[0,0,0,0,0,0,0,0,0,0,0,0,0,0,0],"id":33,"left_children":[1,3,5,7,9,11,13,-1,-1,-1,-1,-1,-1,-1,-1],"loss_changes":[1.2787111E4,2.1635693E3,1.1627236E3,8.463252E2,4.7111685E2,1.2383716E3,2.5419685E3,0E0,0E0,0E0,0E0,0E0,0E0,0E0,0E0],"parents":[2147483647,0,0,1,1,2,2,3,3,4,4,5,5,6,6],"right_children":[2,4,6,8,10,12,14,-1,-1,-1,-1,-1,-1,-1,-1],"split_conditions":[1E0,3.67E2,4.53E2,1E0,3.8E2,1E0,4.91E2,-6.5540835E-2,-1.3187446E-1,2.8061655E-1,2.7370248E-2,4.1886695E-2,1.3882369E-1,4.6284494E-1,8.6435815E-3],"split_indices":[24,0,0,25,0,20,0,0,0,0,0,0,0,0,0],"split_type":[0,0,0,0,0,0,0,0,0,0,0,0,0,0,0],"sum_hessian":[1.425E3,8.81E2,5.44E2,7.48E2,1.33E2,5E2,4.4E1,4.71E2,2.77E2,6E0,1.27E2,1.96E2,3.04E2,2.4E1,2E1],"tree_param":{"num_deleted":"0","num_feature":"27","num_nodes":"15","size_leaf_vector":"1"}},{"base_weights":[5.452017E-3,-2.2774568E0,3.699984E0,-3.4069433E0,-1.9274996E-1,3.2655048E0,8.454967E0,-1.2326903E-1,-5.712768E-2,-2.5942603E-2,8.85253E-2,4.063651E-2,1.346726E-1,4.49515E-1,8.396606E-3],"categories":[],"categories_nodes":[],"categories_segments":[],"categories_sizes":[],"default_left":[0,0,0,0,0,0,0,0,0,0,0,0,0,0,0],"id":34,"left_children":[1,3,5,7,9,11,13,-1,-1,-1,-1,-1,-1,-1,-1],"loss_changes":[1.203571E4,2.0761426E3,1.0983281E3,5.955913E2,6.5954114E2,1.1653623E3,2.3976367E3,0E0,0E0,0E0,0E0,0E0,0E0,0E0,0E0],"parents":[2147483647,0,0,1,1,2,2,3,3,4,4,5,5,6,6],"right_children":[2,4,6,8,10,12,14,-1,-1,-1,-1,-1,-1,-1,-1],"split_conditions":[1E0,3.02E2,4.53E2,1E0,4.12E2,1E0,4.91E2,-1.2326903E-1,-5.712768E-2,-2.5942603E-2,8.85253E-2,4.063651E-2,1.346726E-1,4.49515E-1,8.396606E-3],"split_indices":[24,0,0,20,0,20,0,0,0,0,0,0,0,0,0],"split_type":[0,0,0,0,0,0,0,0,0,0,0,0,0,0,0],"sum_hessian":[1.425E3,8.81E2,5.44E2,5.71E2,3.1E2,5E2,4.4E1,3.88E2,1.83E2,2.56E2,5.4E1,1.96E2,3.04E2,2.4E1,2E1],"tree_param":{"num_deleted":"0","num_feature":"27","num_nodes":"15","size_leaf_vector":"1"}},{"base_weights":[5.648954E-3,-2.2092671E0,3.590145E0,-3.2166271E0,1.419934E-2,2.3161151E0,5.117857E0,-1.4949907E-1,-7.999228E-2,1.5528107E-1,-1.3598009E-2,-2.0489825E-1,7.389846E-2,1.6630849E-1,8.156716E-3],"categories":[],"categories_nodes":[],"categories_segments":[],"categories_sizes":[],"default_left":[0,0,0,0,0,0,0,0,0,0,0,0,0,0,0],"id":35,"left_children":[1,3,5,7,9,11,13,-1,-1,-1,-1,-1,-1,-1,-1],"loss_changes":[1.1329456E4,1.9755767E3,1.0489077E3,5.767505E2,6.6832983E2,4.192766E2,5.0810693E2,0E0,0E0,0E0,0E0,0E0,0E0,0E0,0E0],"parents":[2147483647,0,0,1,1,2,2,3,3,4,4,5,5,6,6],"right_children":[2,4,6,8,10,12,14,-1,-1,-1,-1,-1,-1,-1,-1],"split_conditions":[1E0,4.05E2,4.52E2,2.5E2,4.5E2,2.08E2,4.91E2,-1.4949907E-1,-7.999228E-2,1.5528107E-1,-1.3598009E-2,-2.0489825E-1,7.389846E-2,1.6630849E-1,8.156716E-3],"split_indices":[24,1,1,0,1,0,0,0,0,0,0,0,0,0,0],"split_type":[0,0,0,0,0,0,0,0,0,0,0,0,0,0,0],"sum_hessian":[1.425E3,8.81E2,5.44E2,6.06E2,2.75E2,2.98E2,2.46E2,1.42E2,4.64E2,2.2E1,2.53E2,4E0,2.94E2,2.26E2,2E1],"tree_param":{"num_deleted":"0","num_feature":"27","num_nodes":"15","size_leaf_vector":"1"}},{"base_weights":[5.44836E-3,-2.1430886E0,3.4825203E0,-2.7582068E0,1.31114E0,3.0591037E0,8.119169E0,-5.8856107E-2,-1.2301015E-1,2.7007484E-1,2.640827E-2,3.6627762E-2,1.2709068E-1,4.3177927E-1,7.923693E-3],"categories":[],"categories_nodes":[],"categories_segments":[],"categories_sizes":[],"default_left":[0,0,0,0,0,0,0,0,0,0,0,0,0,0,0],"id":36,"left_children":[1,3,5,7,9,11,13,-1,-1,-1,-1,-1,-1,-1,-1],"loss_changes":[1.0660564E4,1.8776536E3,1.0451255E3,7.92478E2,4.361419E2,1.0789917E3,2.213727E3,0E0,0E0,0E0,0E0,0E0,0E0,0E0,0E0],"parents":[2147483647,0,0,1,1,2,2,3,3,4,4,5,5,6,6],"right_children":[2,4,6,8,10,12,14,-1,-1,-1,-1,-1,-1,-1,-1],"split_conditions":[1E0,3.67E2,4.53E2,1E0,3.8E2,1E0,4.91E2,-5.8856107E-2,-1.2301015E-1,2.7007484E-1,2.640827E-2,3.6627762E-2,1.2709068E-1,4.3177927E-1,7.923693E-3],"split_indices":[24,0,0,25,0,20,0,0,0,0,0,0,0,0,0],"split_type":[0,0,0,0,0,0,0,0,0,0,0,0,0,0,0],"sum_hessian":[1.425E3,8.81E2,5.44E2,7.48E2,1.33E2,5E2,4.4E1,4.71E2,2.77E2,6E0,1.27E2,1.96E2,3.04E2,2.4E1,2E1],"tree_param":{"num_deleted":"0","num_feature":"27","num_nodes":"15","size_leaf_vector":"1"}},{"base_weights":[5.788691E-3,-2.0786655E0,3.3791518E0,-3.1310568E0,-1.3639426E-1,2.967657E0,7.8853664E0,-1.1419995E-1,-5.0571457E-2,-2.3257937E-2,8.554057E-2,3.553448E-2,1.2329047E-1,4.1934404E-1,7.6973173E-3],"categories":[],"categories_nodes":[],"categories_segments":[],"categories_sizes":[],"default_left":[0,0,0,0,0,0,0,0,0,0,0,0,0,0,0],"id":37,"left_children":[1,3,5,7,9,11,13,-1,-1,-1,-1,-1,-1,-1,-1],"loss_changes":[1.0034115E4,1.8024065E3,9.871831E2,5.521323E2,5.9584204E2,1.0153843E3,2.0880334E3,0E0,0E0,0E0,0E0,0E0,0E0,0E0,0E0],"parents":[2147483647,0,0,1,1,2,2,3,3,4,4,5,5,6,6],"right_children":[2,4,6,8,10,12,14,-1,-1,-1,-1,-1,-1,-1,-1],"split_conditions":[1E0,3.02E2,4.53E2,1E0,4.12E2,1E0,4.91E2,-1.1419995E-1,-5.0571457E-2,-2.3257937E-2,8.554057E-2,3.553448E-2,1.2329047E-1,4.1934404E-1,7.6973173E-3],"split_indices":[24,0,0,20,0,20,0,0,0,0,0,0,0,0,0],"split_type":[0,0,0,0,0,0,0,0,0,0,0,0,0,0,0],"sum_hessian":[1.425E3,8.81E2,5.44E2,5.71E2,3.1E2,5E2,4.4E1,3.88E2,1.83E2,2.56E2,5.4E1,1.96E2,3.04E2,2.4E1,2E1],"tree_param":{"num_deleted":"0","num_feature":"27","num_nodes":"15","size_leaf_vector":"1"}},{"base_weights":[5.954138E-3,-2.0164216E0,3.278852E0,-2.9553401E0,5.5825E-2,2.8789444E0,7.658294E0,-1.2228258E-1,-6.428522E-2,1.5161878E-1,-1.1909453E-2,3.4473874E-2,1.1960386E-1,4.0726689E-1,7.4773734E-3],"categories":[],"categories_nodes":[],"categories_segments":[],"categories_sizes":[],"default_left":[0,0,0,0,0,0,0,0,0,0,0,0,0,0,0],"id":38,"left_children":[1,3,5,7,9,11,13,-1,-1,-1,-1,-1,-1,-1,-1],"loss_changes":[9.445346E3,1.7162466E3,9.324507E2,5.440029E2,6.2664655E2,9.555244E2,1.9694763E3,0E0,0E0,0E0,0E0,0E0,0E0,0E0,0E0],"parents":[2147483647,0,0,1,1,2,2,3,3,4,4,5,5,6,6],"right_children":[2,4,6,8,10,12,14,-1,-1,-1,-1,-1,-1,-1,-1],"split_conditions":[1E0,4.05E2,4.53E2,2.61E2,4.5E2,1E0,4.91E2,-1.2228258E-1,-6.428522E-2,1.5161878E-1,-1.1909453E-2,3.4473874E-2,1.1960386E-1,4.0726689E-1,7.4773734E-3],"split_indices":[24,1,0,0,1,20,0,0,0,0,0,0,0,0,0],"split_type":[0,0,0,0,0,0,0,0,0,0,0,0,0,0,0],"sum_hessian":[1.425E3,8.81E2,5.44E2,6.06E2,2.75E2,5E2,4.4E1,2.53E2,3.53E2,2.2E1,2.53E2,1.96E2,3.04E2,2.4E1,2E1],"tree_param":{"num_deleted":"0","num_feature":"27","num_nodes":"15","size_leaf_vector":"1"}},{"base_weights":[6.1418647E-3,-1.9559821E0,3.1815312E0,-2.5288846E0,1.2608831E0,2.0025156E0,4.59588E0,-5.272062E-2,-1.1489173E-1,2.5982934E-1,2.5390191E-2,-2.0253989E-1,6.432293E-2,1.1829799E-1,2.2313283E-1],"categories":[],"categories_nodes":[],"categories_segments":[],"categories_sizes":[],"default_left":[0,0,0,0,0,0,0,0,0,0,0,0,0,0,0],"id":39,"left_children":[1,3,5,7,9,11,13,-1,-1,-1,-1,-1,-1,-1,-1],"loss_changes":[8.890927E3,1.6286702E3,8.9960547E2,7.449951E2,4.037364E2,3.8505237E2,4.2876904E2,0E0,0E0,0E0,0E0,0E0,0E0,0E0,0E0],"parents":[2147483647,0,0,1,1,2,2,3,3,4,4,5,5,6,6],"right_children":[2,4,6,8,10,12,14,-1,-1,-1,-1,-1,-1,-1,-1],"split_conditions":[1E0,3.67E2,4.52E2,1E0,3.8E2,2.08E2,4.53E2,-5.272062E-2,-1.1489173E-1,2.5982934E-1,2.5390191E-2,-2.0253989E-1,6.432293E-2,1.1829799E-1,2.2313283E-1],"split_indices":[24,0,1,25,0,0,0,0,0,0,0,0,0,0,0],"split_type":[0,0,0,0,0,0,0,0,0,0,0,0,0,0,0],"sum_hessian":[1.425E3,8.81E2,5.44E2,7.48E2,1.33E2,2.98E2,2.46E2,4.71E2,2.77E2,6E0,1.27E2,4E0,2.94E2,2.02E2,4.4E1],"tree_param":{"num_deleted":"0","num_feature":"27","num_nodes":"15","size_leaf_vector":"1"}},{"base_weights":[6.1825006E-3,-1.8971694E0,3.086458E0,-2.7930548E0,8.0003306E-2,2.0822048E0,4.654072E0,-1.1651712E-1,-6.007395E-2,1.4674026E-1,-1.0679522E-2,7.192176E-2,-7.4900955E-2,1.5034829E-1,-1.5268803E-1],"categories":[],"categories_nodes":[],"categories_segments":[],"categories_sizes":[],"default_left":[0,0,0,0,0,0,0,0,0,0,0,0,0,0,0],"id":40,"left_children":[1,3,5,7,9,11,13,-1,-1,-1,-1,-1,-1,-1,-1],"loss_changes":[8.366276E3,1.5625281E3,8.482925E2,5.15708E2,5.807017E2,4.8801868E2,7.640591E2,0E0,0E0,0E0,0E0,0E0,0E0,0E0,0E0],"parents":[2147483647,0,0,1,1,2,2,3,3,4,4,5,5,6,6],"right_children":[2,4,6,8,10,12,14,-1,-1,-1,-1,-1,-1,-1,-1],"split_conditions":[1E0,4.05E2,3.97E2,2.61E2,4.5E2,3.67E2,1E0,-1.1651712E-1,-6.007395E-2,1.4674026E-1,-1.0679522E-2,7.192176E-2,-7.4900955E-2,1.5034829E-1,-1.5268803E-1],"split_indices":[24,1,0,0,1,0,18,0,0,0,0,0,0,0,0],"split_type":[0,0,0,0,0,0,0,0,0,0,0,0,0,0,0],"sum_hessian":[1.425E3,8.81E2,5.44E2,6.06E2,2.75E2,3.33E2,2.11E2,2.53E2,3.53E2,2.2E1,2.53E2,3.12E2,2.1E1,2.04E2,7E0],"tree_param":{"num_deleted":"0","num_feature":"27","num_nodes":"15","size_leaf_vector":"1"}},{"base_weights":[5.9648706E-3,-1.8403E0,2.993854E0,-2.7978837E0,-7.316716E-2,1.8660989E0,4.3469105E0,-5.878709E-2,-1.184816E-1,-2.0405717E-2,8.293854E-2,-1.9940509E-1,6.012181E-2,1.4221214E-1,-3.4071568E-3],"categories":[],"categories_nodes":[],"categories_segments":[],"categories_sizes":[],"default_left":[0,0,0,0,0,0,0,0,0,0,0,0,0,0,0],"id":41,"left_children":[1,3,5,7,9,11,13,-1,-1,-1,-1,-1,-1,-1,-1],"loss_changes":[7.8719453E3,1.4922964E3,8.235127E2,5.444248E2,5.376096E2,3.644828E2,4.340669E2,0E0,0E0,0E0,0E0,0E0,0E0,0E0,0E0],"parents":[2147483647,0,0,1,1,2,2,3,3,4,4,5,5,6,6],"right_children":[2,4,6,8,10,12,14,-1,-1,-1,-1,-1,-1,-1,-1],"split_conditions":[1E0,3.02E2,4.52E2,1E0,4.12E2,2.08E2,4.91E2,-5.878709E-2,-1.184816E-1,-2.0405717E-2,8.293854E-2,-1.9940509E-1,6.012181E-2,1.4221214E-1,-3.4071568E-3],"split_indices":[24,0,1,25,0,0,0,0,0,0,0,0,0,0,0],"split_type":[0,0,0,0,0,0,0,0,0,0,0,0,0,0,0],"sum_hessian":[1.425E3,8.81E2,5.44E2,5.71E2,3.1E2,2.98E2,2.46E2,3.32E2,2.39E2,2.56E2,5.4E1,4E0,2.94E2,2.26E2,2E1],"tree_param":{"num_deleted":"0","num_feature":"27","num_nodes":"15","size_leaf_vector":"1"}},{"base_weights":[5.704318E-3,-1.7852218E0,2.9040368E0,-2.637624E0,9.59136E-2,2.5304968E0,6.9982467E0,-9.4471306E-2,-2.9592548E-2,1.4375462E-1,-9.890517E-3,8.205366E-2,-1.8107744E-1,3.8068557E-1,-3.3098275E-3],"categories":[],"categories_nodes":[],"categories_segments":[],"categories_sizes":[],"default_left":[0,0,0,0,0,0,0,0,0,0,0,0,0,0,0],"id":42,"left_children":[1,3,5,7,9,11,13,-1,-1,-1,-1,-1,-1,-1,-1],"loss_changes":[7.4071216E3,1.4145256E3,8.157876E2,5.0948047E2,5.5318414E2,8.947141E2,1.8219573E3,0E0,0E0,0E0,0E0,0E0,0E0,0E0,0E0],"parents":[2147483647,0,0,1,1,2,2,3,3,4,4,5,5,6,6],"right_children":[2,4,6,8,10,12,14,-1,-1,-1,-1,-1,-1,-1,-1],"split_conditions":[1E0,4.05E2,4.53E2,1E0,4.5E2,4.12E2,4.91E2,-9.4471306E-2,-2.9592548E-2,1.4375462E-1,-9.890517E-3,8.205366E-2,-1.8107744E-1,3.8068557E-1,-3.3098275E-3],"split_indices":[24,1,0,20,1,0,0,0,0,0,0,0,0,0,0],"split_type":[0,0,0,0,0,0,0,0,0,0,0,0,0,0,0],"sum_hessian":[1.425E3,8.81E2,5.44E2,6.06E2,2.75E2,5E2,4.4E1,4.62E2,1.44E2,2.2E1,2.53E2,4.89E2,1.1E1,2.4E1,2E1],"tree_param":{"num_deleted":"0","num_feature":"27","num_nodes":"15","size_leaf_vector":"1"}},{"base_weights":[5.734928E-3,-1.7316544E0,2.817426E0,-2.2571008E0,1.2182784E0,2.4543839E0,6.796687E0,-4.580868E-2,-1.0465956E-1,2.4620287E-1,2.4797337E-2,2.457391E-2,1.0507648E-1,3.6972186E-1,-3.2152229E-3],"categories":[],"categories_nodes":[],"categories_segments":[],"categories_sizes":[],"default_left":[0,0,0,0,0,0,0,0,0,0,0,0,0,0,0],"id":43,"left_children":[1,3,5,7,9,11,13,-1,-1,-1,-1,-1,-1,-1,-1],"loss_changes":[6.970892E3,1.3698774E3,7.70647E2,6.681819E2,3.600271E2,8.55853E2,1.7185315E3,0E0,0E0,0E0,0E0,0E0,0E0,0E0,0E0],"parents":[2147483647,0,0,1,1,2,2,3,3,4,4,5,5,6,6],"right_children":[2,4,6,8,10,12,14,-1,-1,-1,-1,-1,-1,-1,-1],"split_conditions":[1E0,3.67E2,4.53E2,1E0,3.8E2,1E0,4.91E2,-4.580868E-2,-1.0465956E-1,2.4620287E-1,2.4797337E-2,2.457391E-2,1.0507648E-1,3.6972186E-1,-3.2152229E-3],"split_indices":[24,0,0,25,0,20,0,0,0,0,0,0,0,0,0],"split_type":[0,0,0,0,0,0,0,0,0,0,0,0,0,0,0],"sum_hessian":[1.425E3,8.81E2,5.44E2,7.48E2,1.33E2,5E2,4.4E1,4.71E2,2.77E2,6E0,1.27E2,1.96E2,3.04E2,2.4E1,2E1],"tree_param":{"num_deleted":"0","num_feature":"27","num_nodes":"15","size_leaf_vector":"1"}},{"base_weights":[5.995654E-3,-1.6795678E0,2.733814E0,-2.576364E0,-2.4754068E-2,1.6613759E0,4.0209603E0,-9.633295E-2,-3.6613524E-2,-1.8031396E-2,8.0056615E-2,-1.9717842E-1,5.3859096E-2,6.817139E-2,1.4724384E-1],"categories":[],"categories_nodes":[],"categories_segments":[],"categories_sizes":[],"default_left":[0,0,0,0,0,0,0,0,0,0,0,0,0,0,0],"id":44,"left_children":[1,3,5,7,9,11,13,-1,-1,-1,-1,-1,-1,-1,-1],"loss_changes":[6.5612124E3,1.3088513E3,7.456299E2,4.8837012E2,4.8431732E2,3.41524E2,3.7201416E2,0E0,0E0,0E0,0E0,0E0,0E0,0E0,0E0],"parents":[2147483647,0,0,1,1,2,2,3,3,4,4,5,5,6,6],"right_children":[2,4,6,8,10,12,14,-1,-1,-1,-1,-1,-1,-1,-1],"split_conditions":[1E0,3.02E2,4.52E2,1E0,4.12E2,2.08E2,1E0,-9.633295E-2,-3.6613524E-2,-1.8031396E-2,8.0056615E-2,-1.9717842E-1,5.3859096E-2,6.817139E-2,1.4724384E-1],"split_indices":[24,0,1,20,0,0,20,0,0,0,0,0,0,0,0],"split_type":[0,0,0,0,0,0,0,0,0,0,0,0,0,0,0],"sum_hessian":[1.425E3,8.81E2,5.44E2,5.71E2,3.1E2,2.98E2,2.46E2,3.88E2,1.83E2,2.56E2,5.4E1,4E0,2.94E2,8.4E1,1.62E2],"tree_param":{"num_deleted":"0","num_feature":"27","num_nodes":"15","size_leaf_vector":"1"}},{"base_weights":[5.816513E-3,-1.6292611E0,2.6519315E0,-2.499306E0,-2.3811212E-2,2.3001342E0,6.5096745E0,-5.116726E-2,-1.07705794E-1,-1.7492538E-2,7.7698626E-2,7.495747E-2,-1.7984517E-1,3.5578215E-1,-5.071128E-3],"categories":[],"categories_nodes":[],"categories_segments":[],"categories_sizes":[],"default_left":[0,0,0,0,0,0,0,0,0,0,0,0,0,0,0],"id":45,"left_children":[1,3,5,7,9,11,13,-1,-1,-1,-1,-1,-1,-1,-1],"loss_changes":[6.1740566E3,1.2319299E3,7.246704E2,4.8915454E2,4.5613287E2,8.3968555E2,1.6098239E3,0E0,0E0,0E0,0E0,0E0,0E0,0E0,0E0],"parents":[2147483647,0,0,1,1,2,2,3,3,4,4,5,5,6,6],"right_children":[2,4,6,8,10,12,14,-1,-1,-1,-1,-1,-1,-1,-1],"split_conditions":[1E0,3.02E2,4.53E2,1E0,4.12E2,4.12E2,4.91E2,-5.116726E-2,-1.07705794E-1,-1.7492538E-2,7.7698626E-2,7.495747E-2,-1.7984517E-1,3.5578215E-1,-5.071128E-3],"split_indices":[24,0,0,25,0,0,0,0,0,0,0,0,0,0,0],"split_type":[0,0,0,0,0,0,0,0,0,0,0,0,0,0,0],"sum_hessian":[1.425E3,8.81E2,5.44E2,5.71E2,3.1E2,5E2,4.4E1,3.32E2,2.39E2,2.56E2,5.4E1,4.89E2,1.1E1,2.4E1,2E1],"tree_param":{"num_deleted":"0","num_feature":"27","num_nodes":"15","size_leaf_vector":"1"}},{"base_weights":[5.7446077E-3,-1.5804954E0,2.5728233E0,-2.3591182E0,1.3763697E-1,1.5363466E0,3.8170893E0,-1.0240588E-1,-4.787696E-2,1.4116089E-1,-8.295537E-3,6.41746E-2,-7.816876E-3,1.7246431E-1,9.061958E-2],"categories":[],"categories_nodes":[],"categories_segments":[],"categories_sizes":[],"default_left":[0,0,0,0,0,0,0,0,0,0,0,0,0,0,0],"id":46,"left_children":[1,3,5,7,9,11,13,-1,-1,-1,-1,-1,-1,-1,-1],"loss_changes":[5.810742E3,1.1802439E3,6.9699634E2,4.8303418E2,5.2342303E2,3.2443103E2,3.6264258E2,0E0,0E0,0E0,0E0,0E0,0E0,0E0,0E0],"parents":[2147483647,0,0,1,1,2,2,3,3,4,4,5,5,6,6],"right_children":[2,4,6,8,10,12,14,-1,-1,-1,-1,-1,-1,-1,-1],"split_conditions":[1E0,4.05E2,4.52E2,2.61E2,4.5E2,1E0,5E2,-1.0240588E-1,-4.787696E-2,1.4116089E-1,-8.295537E-3,6.41746E-2,-7.816876E-3,1.7246431E-1,9.061958E-2],"split_indices":[24,1,1,0,1,21,1,0,0,0,0,0,0,0,0],"split_type":[0,0,0,0,0,0,0,0,0,0,0,0,0,0,0],"sum_hessian":[1.425E3,8.81E2,5.44E2,6.06E2,2.75E2,2.98E2,2.46E2,2.53E2,3.53E2,2.2E1,2.53E2,2.23E2,7.5E1,7E1,1.76E2],"tree_param":{"num_deleted":"0","num_feature":"27","num_nodes":"15","size_leaf_vector":"1"}},{"base_weights":[5.784076E-3,-1.5331006E0,2.4962254E0,-2.0101852E0,1.1450294E0,1.6097685E0,3.8810384E0,-1.1601183E-1,-4.7082648E-2,5.563163E-2,-7.0770636E-2,5.793954E-2,-9.114525E-2,1.2670335E-1,-1.6134797E-1],"categories":[],"categories_nodes":[],"categories_segments":[],"categories_sizes":[],"default_left":[0,0,0,0,0,0,0,0,0,0,0,0,0,0,0],"id":47,"left_children":[1,3,5,7,9,11,13,-1,-1,-1,-1,-1,-1,-1,-1],"loss_changes":[5.4689746E3,1.1292283E3,6.62782E2,6.069446E2,3.3744864E2,5.050453E2,6.9484985E2,0E0,0E0,0E0,0E0,0E0,0E0,0E0,0E0],"parents":[2147483647,0,0,1,1,2,2,3,3,4,4,5,5,6,6],"right_children":[2,4,6,8,10,12,14,-1,-1,-1,-1,-1,-1,-1,-1],"split_conditions":[1E0,3.67E2,3.97E2,3.5E2,4.97E2,3.67E2,1E0,-1.1601183E-1,-4.7082648E-2,5.563163E-2,-7.0770636E-2,5.793954E-2,-9.114525E-2,1.2670335E-1,-1.6134797E-1],"split_indices":[24,0,0,1,1,0,18,0,0,0,0,0,0,0,0],"split_type":[0,0,0,0,0,0,0,0,0,0,0,0,0,0,0],"sum_hessian":[1.425E3,8.81E2,5.44E2,7.48E2,1.33E2,3.33E2,2.11E2,1.42E2,6.06E2,1.11E2,2.2E1,3.12E2,2.1E1,2.04E2,7E0],"tree_param":{"num_deleted":"0","num_feature":"27","num_nodes":"15","size_leaf_vector":"1"}},{"base_weights":[5.4375445E-3,-1.4873092E0,2.4212122E0,-2.2268157E0,1.4445812E-1,9.992153E-1,3.2623415E0,-8.154334E-2,-1.928101E-2,1.376574E-1,-7.7559333E-3,-1.9631198E-1,3.5483785E-2,4.73106E-2,1.226123E-1],"categories":[],"categories_nodes":[],"categories_segments":[],"categories_sizes":[],"default_left":[0,0,0,0,0,0,0,0,0,0,0,0,0,0,0],"id":48,"left_children":[1,3,5,7,9,11,13,-1,-1,-1,-1,-1,-1,-1,-1],"loss_changes":[5.145957E3,1.0646334E3,6.4860547E2,4.7066235E2,4.9548392E2,2.90222E2,4.6891504E2,0E0,0E0,0E0,0E0,0E0,0E0,0E0,0E0],"parents":[2147483647,0,0,1,1,2,2,3,3,4,4,5,5,6,6],"right_children":[2,4,6,8,10,12,14,-1,-1,-1,-1,-1,-1,-1,-1],"split_conditions":[1E0,4.05E2,4.05E2,1E0,4.5E2,2.08E2,1E0,-8.154334E-2,-1.928101E-2,1.376574E-1,-7.7559333E-3,-1.9631198E-1,3.5483785E-2,4.73106E-2,1.226123E-1],"split_indices":[24,1,1,20,1,0,20,0,0,0,0,0,0,0,0],"split_type":[0,0,0,0,0,0,0,0,0,0,0,0,0,0,0],"sum_hessian":[1.425E3,8.81E2,5.44E2,6.06E2,2.75E2,2.03E2,3.41E2,4.62E2,1.44E2,2.2E1,2.53E2,4E0,1.99E2,1.13E2,2.28E2],"tree_param":{"num_deleted":"0","num_feature":"27","num_nodes":"15","size_leaf_vector":"1"}},{"base_weights":[5.3010206E-3,-1.4426574E0,2.3485928E0,-1.8985165E0,1.1161579E0,2.0195296E0,5.9599724E0,-3.6279567E-2,-9.185508E-2,2.3218529E-1,2.23567E-2,6.643631E-2,-1.8335548E-1,3.3429205E-1,-1.4825636E-2],"categories":[],"categories_nodes":[],"categories_segments":[],"categories_sizes":[],"default_left":[0,0,0,0,0,0,0,0,0,0,0,0,0,0,0],"id":49,"left_children":[1,3,5,7,9,11,13,-1,-1,-1,-1,-1,-1,-1,-1],"loss_changes":[4.84179E3,1.0309364E3,6.3562646E2,5.9681323E2,3.2344757E2,8.079883E2,1.5108705E3,0E0,0E0,0E0,0E0,0E0,0E0,0E0,0E0],"parents":[2147483647,0,0,1,1,2,2,3,3,4,4,5,5,6,6],"right_children":[2,4,6,8,10,12,14,-1,-1,-1,-1,-1,-1,-1,-1],"split_conditions":[1E0,3.67E2,4.53E2,1E0,3.8E2,4.12E2,4.91E2,-3.6279567E-2,-9.185508E-2,2.3218529E-1,2.23567E-2,6.643631E-2,-1.8335548E-1,3.3429205E-1,-1.4825636E-2],"split_indices":[24,0,0,25,0,0,0,0,0,0,0,0,0,0,0],"split_type":[0,0,0,0,0,0,0,0,0,0,0,0,0,0,0],"sum_hessian":[1.425E3,8.81E2,5.44E2,7.48E2,1.33E2,5E2,4.4E1,4.71E2,2.77E2,6E0,1.27E2,4.89E2,1.1E1,2.4E1,2E1],"tree_param":{"num_deleted":"0","num_feature":"27","num_nodes":"15","size_leaf_vector":"1"}},{"base_weights":[5.372688E-3,-1.3992339E0,2.278506E0,-2.1781738E0,3.7913565E-2,1.3101588E0,3.4414911E0,-4.2483844E-2,-9.679309E-2,2.3762643E-2,-4.902304E-2,-1.9319496E-1,4.31122E-2,1.1367354E-1,-1.4402095E-2],"categories":[],"categories_nodes":[],"categories_segments":[],"categories_sizes":[],"default_left":[0,0,0,0,0,0,0,0,0,0,0,0,0,0,0],"id":50,"left_children":[1,3,5,7,9,11,13,-1,-1,-1,-1,-1,-1,-1,-1],"loss_changes":[4.556204E3,9.8743896E2,6.092554E2,4.5235815E2,3.934626E2,3.0334705E2,3.3853955E2,0E0,0E0,0E0,0E0,0E0,0E0,0E0,0E0],"parents":[2147483647,0,0,1,1,2,2,3,3,4,4,5,5,6,6],"right_children":[2,4,6,8,10,12,14,-1,-1,-1,-1,-1,-1,-1,-1],"split_conditions":[1E0,3.02E2,4.52E2,1E0,1E0,2.08E2,4.91E2,-4.2483844E-2,-9.679309E-2,2.3762643E-2,-4.902304E-2,-1.9319496E-1,4.31122E-2,1.1367354E-1,-1.4402095E-2],"split_indices":[24,0,1,25,19,0,0,0,0,0,0,0,0,0,0],"split_type":[0,0,0,0,0,0,0,0,0,0,0,0,0,0,0],"sum_hessian":[1.425E3,8.81E2,5.44E2,5.71E2,3.1E2,2.98E2,2.46E2,3.32E2,2.39E2,2.14E2,9.6E1,4E0,2.94E2,2.26E2,2E1],"tree_param":{"num_deleted":"0","num_feature":"27","num_nodes":"15","size_leaf_vector":"1"}},{"base_weights":[5.060125E-3,-1.3574433E0,2.2100565E0,-2.1130724E0,3.6695436E-2,1.8891194E0,5.734045E0,-8.123187E-2,-2.5332183E-2,-1.4265976E-2,7.288589E-2,6.2389255E-2,-1.8143919E-1,3.2139057E-1,-1.3990652E-2],"categories":[],"categories_nodes":[],"categories_segments":[],"categories_sizes":[],"default_left":[0,0,0,0,0,0,0,0,0,0,0,0,0,0,0],"id":51,"left_children":[1,3,5,7,9,11,13,-1,-1,-1,-1,-1,-1,-1,-1],"loss_changes":[4.287154E3,9.292217E2,6.055513E2,4.2924268E2,3.823408E2,7.701869E2,1.3942195E3,0E0,0E0,0E0,0E0,0E0,0E0,0E0,0E0],"parents":[2147483647,0,0,1,1,2,2,3,3,4,4,5,5,6,6],"right_children":[2,4,6,8,10,12,14,-1,-1,-1,-1,-1,-1,-1,-1],"split_conditions":[1E0,3.02E2,4.53E2,1E0,4.12E2,4.12E2,4.91E2,-8.123187E-2,-2.5332183E-2,-1.4265976E-2,7.288589E-2,6.2389255E-2,-1.8143919E-1,3.2139057E-1,-1.3990652E-2],"split_indices":[24,0,0,20,0,0,0,0,0,0,0,0,0,0,0],"split_type":[0,0,0,0,0,0,0,0,0,0,0,0,0,0,0],"sum_hessian":[1.425E3,8.81E2,5.44E2,5.71E2,3.1E2,5E2,4.4E1,3.88E2,1.83E2,2.56E2,5.4E1,4.89E2,1.1E1,2.4E1,2E1],"tree_param":{"num_deleted":"0","num_feature":"27","num_nodes":"15","size_leaf_vector":"1"}},{"base_weights":[5.0064772E-3,-1.3167748E0,2.1441002E0,-2.4898908E0,-4.6018803E-1,8.0198646E-1,2.93839E0,-1.0120461E-1,-2.5695567E-3,-3.1723496E-2,5.3348243E-2,-1.9005562E-1,2.9292176E-2,4.0387552E-2,1.1154454E-1],"categories":[],"categories_nodes":[],"categories_segments":[],"categories_sizes":[],"default_left":[0,0,0,0,0,0,0,0,0,0,0,0,0,0,0],"id":52,"left_children":[1,3,5,7,9,11,13,-1,-1,-1,-1,-1,-1,-1,-1],"loss_changes":[4.0347163E3,8.851543E2,5.786284E2,7.899795E2,6.850611E2,2.601375E2,4.1958325E2,0E0,0E0,0E0,0E0,0E0,0E0,0E0,0E0],"parents":[2147483647,0,0,1,1,2,2,3,3,4,4,5,5,6,6],"right_children":[2,4,6,8,10,12,14,-1,-1,-1,-1,-1,-1,-1,-1],"split_conditions":[1E0,3.54E2,4.05E2,1E0,1E0,2.08E2,1E0,-1.0120461E-1,-2.5695567E-3,-3.1723496E-2,5.3348243E-2,-1.9005562E-1,2.9292176E-2,4.0387552E-2,1.1154454E-1],"split_indices":[24,1,1,20,18,0,20,0,0,0,0,0,0,0,0],"split_type":[0,0,0,0,0,0,0,0,0,0,0,0,0,0,0],"sum_hessian":[1.425E3,8.81E2,5.44E2,3.71E2,5.1E2,2.03E2,3.41E2,2.71E2,1E2,4.03E2,1.07E2,4E0,1.99E2,1.13E2,2.28E2],"tree_param":{"num_deleted":"0","num_feature":"27","num_nodes":"15","size_leaf_vector":"1"}},{"base_weights":[4.79199E-3,-1.2773652E0,2.0797606E0,-1.9367537E0,1.774398E-1,1.7677531E0,5.5072274E0,-8.7716945E-2,-3.668978E-2,1.3480517E-1,-6.422509E-3,5.8584604E-2,-1.7809395E-1,3.097759E-1,-1.4744763E-2],"categories":[],"categories_nodes":[],"categories_segments":[],"categories_sizes":[],"default_left":[0,0,0,0,0,0,0,0,0,0,0,0,0,0,0],"id":53,"left_children":[1,3,5,7,9,11,13,-1,-1,-1,-1,-1,-1,-1,-1],"loss_changes":[3.7964385E3,8.464303E2,5.7308496E2,4.2410742E2,4.6735812E2,7.2591736E2,1.3058287E3,0E0,0E0,0E0,0E0,0E0,0E0,0E0,0E0],"parents":[2147483647,0,0,1,1,2,2,3,3,4,4,5,5,6,6],"right_children":[2,4,6,8,10,12,14,-1,-1,-1,-1,-1,-1,-1,-1],"split_conditions":[1E0,4.05E2,4.53E2,2.61E2,4.5E2,4.12E2,4.91E2,-8.7716945E-2,-3.668978E-2,1.3480517E-1,-6.422509E-3,5.8584604E-2,-1.7809395E-1,3.097759E-1,-1.4744763E-2],"split_indices":[24,1,0,0,1,0,0,0,0,0,0,0,0,0,0],"split_type":[0,0,0,0,0,0,0,0,0,0,0,0,0,0,0],"sum_hessian":[1.425E3,8.81E2,5.44E2,6.06E2,2.75E2,5E2,4.4E1,2.53E2,3.53E2,2.2E1,2.53E2,4.89E2,1.1E1,2.4E1,2E1],"tree_param":{"num_deleted":"0","num_feature":"27","num_nodes":"15","size_leaf_vector":"1"}},{"base_weights":[4.7735586E-3,-1.2390398E0,2.0176885E0,-1.6453911E0,1.0415283E0,1.2122988E0,3.2770395E0,-2.9756129E-2,-8.247138E-2,5.1416866E-2,-6.833673E-2,4.6109304E-2,-1.03862636E-1,1.08197644E-1,-1.6731817E-1],"categories":[],"categories_nodes":[],"categories_segments":[],"categories_sizes":[],"default_left":[0,0,0,0,0,0,0,0,0,0,0,0,0,0,0],"id":54,"left_children":[1,3,5,7,9,11,13,-1,-1,-1,-1,-1,-1,-1,-1],"loss_changes":[3.5727627E3,8.190735E2,5.488032E2,5.3749744E2,3.0297443E2,5.12223E2,6.387151E2,0E0,0E0,0E0,0E0,0E0,0E0,0E0,0E0],"parents":[2147483647,0,0,1,1,2,2,3,3,4,4,5,5,6,6],"right_children":[2,4,6,8,10,12,14,-1,-1,-1,-1,-1,-1,-1,-1],"split_conditions":[1E0,3.67E2,3.97E2,1E0,4.97E2,3.67E2,1E0,-2.9756129E-2,-8.247138E-2,5.1416866E-2,-6.833673E-2,4.6109304E-2,-1.03862636E-1,1.08197644E-1,-1.6731817E-1],"split_indices":[24,0,0,25,1,0,18,0,0,0,0,0,0,0,0],"split_type":[0,0,0,0,0,0,0,0,0,0,0,0,0,0,0],"sum_hessian":[1.425E3,8.81E2,5.44E2,7.48E2,1.33E2,3.33E2,2.11E2,4.71E2,2.77E2,1.11E2,2.2E1,3.12E2,2.1E1,2.04E2,7E0],"tree_param":{"num_deleted":"0","num_feature":"27","num_nodes":"15","size_leaf_vector":"1"}},{"base_weights":[4.4584326E-3,-1.2020147E0,1.9569445E0,-2.2985942E0,-4.0136972E-1,6.680871E-1,2.7200143E0,-9.469593E-2,1.0394204E-3,-2.9126897E-2,5.198397E-2,9.367457E-4,7.7341855E-2,3.5774674E-2,1.0405692E-1],"categories":[],"categories_nodes":[],"categories_segments":[],"categories_sizes":[],"default_left":[0,0,0,0,0,0,0,0,0,0,0,0,0,0,0],"id":55,"left_children":[1,3,5,7,9,11,13,-1,-1,-1,-1,-1,-1,-1,-1],"loss_changes":[3.3614692E3,7.7344763E2,5.3418384E2,7.447693E2,6.2278577E2,2.4806323E2,3.8691675E2,0E0,0E0,0E0,0E0,0E0,0E0,0E0,0E0],"parents":[2147483647,0,0,1,1,2,2,3,3,4,4,5,5,6,6],"right_children":[2,4,6,8,10,12,14,-1,-1,-1,-1,-1,-1,-1,-1],"split_conditions":[1E0,3.54E2,4.05E2,1E0,1E0,1E0,1E0,-9.469593E-2,1.0394204E-3,-2.9126897E-2,5.198397E-2,9.367457E-4,7.7341855E-2,3.5774674E-2,1.0405692E-1],"split_indices":[24,1,1,20,18,23,20,0,0,0,0,0,0,0,0],"split_type":[0,0,0,0,0,0,0,0,0,0,0,0,0,0,0],"sum_hessian":[1.425E3,8.81E2,5.44E2,3.71E2,5.1E2,2.03E2,3.41E2,2.71E2,1E2,4.03E2,1.07E2,1.53E2,5E1,1.13E2,2.28E2],"tree_param":{"num_deleted":"0","num_feature":"27","num_nodes":"15","size_leaf_vector":"1"}},{"base_weights":[4.427728E-3,-1.1660346E0,1.8986356E0,-1.5528089E0,1.0045624E0,1.5995243E0,5.1865516E0,-2.7474929E-2,-7.8861326E-2,2.1847348E-1,1.960177E-2,5.3414002E-2,-1.776677E-1,2.955608E-1,-1.8436955E-2],"categories":[],"categories_nodes":[],"categories_segments":[],"categories_sizes":[],"default_left":[0,0,0,0,0,0,0,0,0,0,0,0,0,0,0],"id":56,"left_children":[1,3,5,7,9,11,13,-1,-1,-1,-1,-1,-1,-1,-1],"loss_changes":[3.163797E3,7.4202625E2,5.2768604E2,5.109015E2,2.9065894E2,6.9241064E2,1.2239781E3,0E0,0E0,0E0,0E0,0E0,0E0,0E0,0E0],"parents":[2147483647,0,0,1,1,2,2,3,3,4,4,5,5,6,6],"right_children":[2,4,6,8,10,12,14,-1,-1,-1,-1,-1,-1,-1,-1],"split_conditions":[1E0,3.67E2,4.53E2,1E0,3.8E2,4.12E2,4.91E2,-2.7474929E-2,-7.8861326E-2,2.1847348E-1,1.960177E-2,5.3414002E-2,-1.776677E-1,2.955608E-1,-1.8436955E-2],"split_indices":[24,0,0,25,0,0,0,0,0,0,0,0,0,0,0],"split_type":[0,0,0,0,0,0,0,0,0,0,0,0,0,0,0],"sum_hessian":[1.425E3,8.81E2,5.44E2,7.48E2,1.33E2,5E2,4.4E1,4.71E2,2.77E2,6E0,1.27E2,4.89E2,1.1E1,2.4E1,2E1],"tree_param":{"num_deleted":"0","num_feature":"27","num_nodes":"15","size_leaf_vector":"1"}},{"base_weights":[4.4949213E-3,-1.1309038E0,1.8419577E0,-1.7375826E0,2.0744722E-1,9.619232E-1,2.8998055E0,-8.057965E-2,-3.156539E-2,1.3047582E-1,-5.052287E-3,4.5625232E-2,-2.0942127E-2,1.3979599E-1,6.532227E-2],"categories":[],"categories_nodes":[],"categories_segments":[],"categories_sizes":[],"default_left":[0,0,0,0,0,0,0,0,0,0,0,0,0,0,0],"id":57,"left_children":[1,3,5,7,9,11,13,-1,-1,-1,-1,-1,-1,-1,-1],"loss_changes":[2.9770798E3,7.164995E2,5.0457434E2,3.9174817E2,4.3038263E2,2.78474E2,3.039048E2,0E0,0E0,0E0,0E0,0E0,0E0,0E0,0E0],"parents":[2147483647,0,0,1,1,2,2,3,3,4,4,5,5,6,6],"right_children":[2,4,6,8,10,12,14,-1,-1,-1,-1,-1,-1,-1,-1],"split_conditions":[1E0,4.05E2,4.52E2,2.61E2,4.5E2,1E0,5E2,-8.057965E-2,-3.156539E-2,1.3047582E-1,-5.052287E-3,4.5625232E-2,-2.0942127E-2,1.3979599E-1,6.532227E-2],"split_indices":[24,1,1,0,1,21,1,0,0,0,0,0,0,0,0],"split_type":[0,0,0,0,0,0,0,0,0,0,0,0,0,0,0],"sum_hessian":[1.425E3,8.81E2,5.44E2,6.06E2,2.75E2,2.98E2,2.46E2,2.53E2,3.53E2,2.2E1,2.53E2,2.23E2,7.5E1,7E1,1.76E2],"tree_param":{"num_deleted":"0","num_feature":"27","num_nodes":"15","size_leaf_vector":"1"}},{"base_weights":[4.5304825E-3,-1.096962E0,1.7871209E0,-1.3222059E0,2.313927E0,1.0371764E0,2.9602077E0,-9.249043E-2,-2.8596882E-2,1.9537933E-1,4.0525783E-2,4.0742528E-2,-1.0726838E-1,9.835501E-2,-1.6698201E-1],"categories":[],"categories_nodes":[],"categories_segments":[],"categories_sizes":[],"default_left":[0,0,0,0,0,0,0,0,0,0,0,0,0,0,0],"id":58,"left_children":[1,3,5,7,9,11,13,-1,-1,-1,-1,-1,-1,-1,-1],"loss_changes":[2.8019258E3,6.806841E2,4.763933E2,5.3501013E2,2.13603E2,4.9926974E2,5.935847E2,0E0,0E0,0E0,0E0,0E0,0E0,0E0,0E0],"parents":[2147483647,0,0,1,1,2,2,3,3,4,4,5,5,6,6],"right_children":[2,4,6,8,10,12,14,-1,-1,-1,-1,-1,-1,-1,-1],"split_conditions":[1E0,4.12E2,3.97E2,3.5E2,4.3E2,3.67E2,1E0,-9.249043E-2,-2.8596882E-2,1.9537933E-1,4.0525783E-2,4.0742528E-2,-1.0726838E-1,9.835501E-2,-1.6698201E-1],"split_indices":[24,0,0,1,0,0,18,0,0,0,0,0,0,0,0],"split_type":[0,0,0,0,0,0,0,0,0,0,0,0,0,0,0],"sum_hessian":[1.425E3,8.81E2,5.44E2,8.27E2,5.4E1,3.33E2,2.11E2,1.42E2,6.85E2,9E0,4.5E1,3.12E2,2.1E1,2.04E2,7E0],"tree_param":{"num_deleted":"0","num_feature":"27","num_nodes":"15","size_leaf_vector":"1"}},{"base_weights":[4.3807556E-3,-1.0639229E0,1.7332605E0,-1.6421432E0,2.1159747E-1,5.279828E-1,2.4471302E0,-6.272985E-2,-5.9276316E-3,1.2755233E-1,-4.6522697E-3,-1.9058536E-1,2.0920908E-2,2.9032977E-2,9.5186874E-2],"categories":[],"categories_nodes":[],"categories_segments":[],"categories_sizes":[],"default_left":[0,0,0,0,0,0,0,0,0,0,0,0,0,0,0],"id":59,"left_children":[1,3,5,7,9,11,13,-1,-1,-1,-1,-1,-1,-1,-1],"loss_changes":[2.6356213E3,6.5085046E2,4.6763184E2,3.9316052E2,4.0952945E2,2.421882E2,3.6412524E2,0E0,0E0,0E0,0E0,0E0,0E0,0E0,0E0],"parents":[2147483647,0,0,1,1,2,2,3,3,4,4,5,5,6,6],"right_children":[2,4,6,8,10,12,14,-1,-1,-1,-1,-1,-1,-1,-1],"split_conditions":[1E0,4.05E2,4.05E2,1E0,4.5E2,2.08E2,1E0,-6.272985E-2,-5.9276316E-3,1.2755233E-1,-4.6522697E-3,-1.9058536E-1,2.0920908E-2,2.9032977E-2,9.5186874E-2],"split_indices":[24,1,1,20,1,0,20,0,0,0,0,0,0,0,0],"split_type":[0,0,0,0,0,0,0,0,0,0,0,0,0,0,0],"sum_hessian":[1.425E3,8.81E2,5.44E2,6.06E2,2.75E2,2.03E2,3.41E2,4.62E2,1.44E2,2.2E1,2.53E2,4E0,1.99E2,1.13E2,2.28E2],"tree_param":{"num_deleted":"0","num_feature":"27","num_nodes":"15","size_leaf_vector":"1"}},{"base_weights":[4.255782E-3,-1.0319431E0,1.681179E0,-1.2489239E0,2.253366E0,1.4017061E0,4.755285E0,-1.9389834E-2,-6.8243094E-2,1.902297E-1,3.9472975E-2,4.7382195E-2,-1.7913607E-1,5.272869E-2,4.1583002E-1],"categories":[],"categories_nodes":[],"categories_segments":[],"categories_sizes":[],"default_left":[0,0,0,0,0,0,0,0,0,0,0,0,0,0,0],"id":60,"left_children":[1,3,5,7,9,11,13,-1,-1,-1,-1,-1,-1,-1,-1],"loss_changes":[2.4795898E3,6.31547E2,4.615598E2,5.10375E2,2.0244736E2,6.658255E2,1.2039509E3,0E0,0E0,0E0,0E0,0E0,0E0,0E0,0E0],"parents":[2147483647,0,0,1,1,2,2,3,3,4,4,5,5,6,6],"right_children":[2,4,6,8,10,12,14,-1,-1,-1,-1,-1,-1,-1,-1],"split_conditions":[1E0,4.12E2,4.53E2,1E0,4.3E2,4.12E2,4.98E2,-1.9389834E-2,-6.8243094E-2,1.902297E-1,3.9472975E-2,4.7382195E-2,-1.7913607E-1,5.272869E-2,4.1583002E-1],"split_indices":[24,0,0,25,0,0,1,0,0,0,0,0,0,0,0],"split_type":[0,0,0,0,0,0,0,0,0,0,0,0,0,0,0],"sum_hessian":[1.425E3,8.81E2,5.44E2,8.27E2,5.4E1,5E2,4.4E1,5.22E2,3.05E2,9E0,4.5E1,4.89E2,1.1E1,3.4E1,1E1],"tree_param":{"num_deleted":"0","num_feature":"27","num_nodes":"15","size_leaf_vector":"1"}},{"base_weights":[4.46385E-3,-1.0008237E0,1.6313614E0,-1.9868499E0,-2.810535E-1,8.0703664E-1,2.6226234E0,-8.4021136E-2,6.737686E-3,-2.4710549E-2,5.2541774E-2,4.0304072E-2,-2.3539394E-2,2.4582955E-1,7.205512E-2],"categories":[],"categories_nodes":[],"categories_segments":[],"categories_sizes":[],"default_left":[0,0,0,0,0,0,0,0,0,0,0,0,0,0,0],"id":61,"left_children":[1,3,5,7,9,11,13,-1,-1,-1,-1,-1,-1,-1,-1],"loss_changes":[2.3338557E3,6.254078E2,4.4321497E2,6.7015125E2,5.650087E2,2.563495E2,2.8416638E2,0E0,0E0,0E0,0E0,0E0,0E0,0E0,0E0],"parents":[2147483647,0,0,1,1,2,2,3,3,4,4,5,5,6,6],"right_children":[2,4,6,8,10,12,14,-1,-1,-1,-1,-1,-1,-1,-1],"split_conditions":[1E0,3.54E2,4.52E2,1E0,1E0,1E0,4.77E2,-8.4021136E-2,6.737686E-3,-2.4710549E-2,5.2541774E-2,4.0304072E-2,-2.3539394E-2,2.4582955E-1,7.205512E-2],"split_indices":[24,1,1,20,18,21,1,0,0,0,0,0,0,0,0],"split_type":[0,0,0,0,0,0,0,0,0,0,0,0,0,0,0],"sum_hessian":[1.425E3,8.81E2,5.44E2,3.71E2,5.1E2,2.98E2,2.46E2,2.71E2,1E2,4.03E2,1.07E2,2.23E2,7.5E1,8E0,2.38E2],"tree_param":{"num_deleted":"0","num_feature":"27","num_nodes":"15","size_leaf_vector":"1"}},{"base_weights":[4.529905E-3,-9.708555E-1,1.5830351E0,-2.837646E0,-6.087988E-1,1.3131496E0,4.5525827E0,6.0113717E-2,-1.00116104E-1,-2.497668E-2,6.5793976E-2,4.4593744E-2,-1.761914E-1,4.9092058E-2,4.0252405E-1],"categories":[],"categories_nodes":[],"categories_segments":[],"categories_sizes":[],"default_left":[0,0,0,0,0,0,0,0,0,0,0,0,0,0,0],"id":62,"left_children":[1,3,5,7,9,11,13,-1,-1,-1,-1,-1,-1,-1,-1],"loss_changes":[2.197079E3,5.9440204E2,4.3080554E2,3.5254358E2,4.6577063E2,6.326902E2,1.1413665E3,0E0,0E0,0E0,0E0,0E0,0E0,0E0,0E0],"parents":[2147483647,0,0,1,1,2,2,3,3,4,4,5,5,6,6],"right_children":[2,4,6,8,10,12,14,-1,-1,-1,-1,-1,-1,-1,-1],"split_conditions":[1E0,3.5E2,4.53E2,2.2E2,4.12E2,4.12E2,4.98E2,6.0113717E-2,-1.00116104E-1,-2.497668E-2,6.5793976E-2,4.4593744E-2,-1.761914E-1,4.9092058E-2,4.0252405E-1],"split_indices":[24,1,0,0,0,0,1,0,0,0,0,0,0,0,0],"split_type":[0,0,0,0,0,0,0,0,0,0,0,0,0,0,0],"sum_hessian":[1.425E3,8.81E2,5.44E2,1.42E2,7.39E2,5E2,4.4E1,1.3E1,1.29E2,6.85E2,5.4E1,4.89E2,1.1E1,3.4E1,1E1],"tree_param":{"num_deleted":"0","num_feature":"27","num_nodes":"15","size_leaf_vector":"1"}},{"base_weights":[4.6191625E-3,-9.4172865E-1,1.5361314E0,-1.8794597E0,-2.572322E-1,7.3843855E-1,2.4955404E0,-7.9801895E-2,7.241044E-3,-2.348651E-2,5.134427E-2,-1.8841991E-1,2.5647096E-2,8.428505E-2,-3.0511998E-2],"categories":[],"categories_nodes":[],"categories_segments":[],"categories_sizes":[],"default_left":[0,0,0,0,0,0,0,0,0,0,0,0,0,0,0],"id":63,"left_children":[1,3,5,7,9,11,13,-1,-1,-1,-1,-1,-1,-1,-1],"loss_changes":[2.06821E3,5.65649E2,4.1525305E2,6.164977E2,5.301504E2,2.4979509E2,2.7525452E2,0E0,0E0,0E0,0E0,0E0,0E0,0E0,0E0],"parents":[2147483647,0,0,1,1,2,2,3,3,4,4,5,5,6,6],"right_children":[2,4,6,8,10,12,14,-1,-1,-1,-1,-1,-1,-1,-1],"split_conditions":[1E0,3.54E2,4.52E2,1E0,1E0,2.08E2,4.91E2,-7.9801895E-2,7.241044E-3,-2.348651E-2,5.134427E-2,-1.8841991E-1,2.5647096E-2,8.428505E-2,-3.0511998E-2],"split_indices":[24,1,1,20,18,0,0,0,0,0,0,0,0,0,0],"split_type":[0,0,0,0,0,0,0,0,0,0,0,0,0,0,0],"sum_hessian":[1.425E3,8.81E2,5.44E2,3.71E2,5.1E2,2.98E2,2.46E2,2.71E2,1E2,4.03E2,1.07E2,4E0,2.94E2,2.26E2,2E1],"tree_param":{"num_deleted":"0","num_feature":"27","num_nodes":"15","size_leaf_vector":"1"}},{"base_weights":[4.373057E-3,-9.135272E-1,1.4898477E0,-1.1666976E0,1.5376765E0,1.2259634E0,4.3946514E0,-5.521472E-2,-1.0637116E-2,1.05737165E-1,1.708616E-2,4.1857544E-2,-1.7366394E-1,4.717306E-2,3.8924745E-1],"categories":[],"categories_nodes":[],"categories_segments":[],"categories_sizes":[],"default_left":[0,0,0,0,0,0,0,0,0,0,0,0,0,0,0],"id":64,"left_children":[1,3,5,7,9,11,13,-1,-1,-1,-1,-1,-1,-1,-1],"loss_changes":[1.9457372E3,5.4913885E2,4.123722E2,4.3711194E2,1.5765047E2,6.030222E2,1.069289E3,0E0,0E0,0E0,0E0,0E0,0E0,0E0,0E0],"parents":[2147483647,0,0,1,1,2,2,3,3,4,4,5,5,6,6],"right_children":[2,4,6,8,10,12,14,-1,-1,-1,-1,-1,-1,-1,-1],"split_conditions":[1E0,4.82E2,4.53E2,2.84E2,1E0,4.12E2,4.98E2,-5.521472E-2,-1.0637116E-2,1.05737165E-1,1.708616E-2,4.1857544E-2,-1.7366394E-1,4.717306E-2,3.8924745E-1],"split_indices":[24,1,0,0,25,0,1,0,0,0,0,0,0,0,0],"split_type":[0,0,0,0,0,0,0,0,0,0,0,0,0,0,0],"sum_hessian":[1.425E3,8.81E2,5.44E2,7.99E2,8.2E1,5E2,4.4E1,4.36E2,3.63E2,2.6E1,5.6E1,4.89E2,1.1E1,3.4E1,1E1],"tree_param":{"num_deleted":"0","num_feature":"27","num_nodes":"15","size_leaf_vector":"1"}},{"base_weights":[4.4948463E-3,-8.8605714E-1,1.4457102E0,-1.0838656E0,2.1079705E0,4.3178707E-1,2.1626847E0,-1.4977002E-2,-6.2386442E-2,1.8448977E-1,3.5505515E-2,-2.9123388E-3,1.1336131E-1,3.400603E-2,1.0032334E-1],"categories":[],"categories_nodes":[],"categories_segments":[],"categories_sizes":[],"default_left":[0,0,0,0,0,0,0,0,0,0,0,0,0,0,0],"id":65,"left_children":[1,3,5,7,9,11,13,-1,-1,-1,-1,-1,-1,-1,-1],"loss_changes":[1.8315194E3,5.2464417E2,3.952577E2,4.8094733E2,1.9822116E2,4.021729E2,3.8407056E2,0E0,0E0,0E0,0E0,0E0,0E0,0E0,0E0],"parents":[2147483647,0,0,1,1,2,2,3,3,4,4,5,5,6,6],"right_children":[2,4,6,8,10,12,14,-1,-1,-1,-1,-1,-1,-1,-1],"split_conditions":[1E0,4.12E2,1E0,1E0,4.3E2,4.53E2,3.97E2,-1.4977002E-2,-6.2386442E-2,1.8448977E-1,3.5505515E-2,-2.9123388E-3,1.1336131E-1,3.400603E-2,1.0032334E-1],"split_indices":[24,0,20,25,0,0,0,0,0,0,0,0,0,0,0],"split_type":[0,0,0,0,0,0,0,0,0,0,0,0,0,0,0],"sum_hessian":[1.425E3,8.81E2,5.44E2,8.27E2,5.4E1,2.26E2,3.18E2,5.22E2,3.05E2,9E0,4.5E1,1.96E2,3E1,1.71E2,1.47E2],"tree_param":{"num_deleted":"0","num_feature":"27","num_nodes":"15","size_leaf_vector":"1"}},{"base_weights":[4.631298E-3,-8.593144E-1,1.4027882E0,-2.6047597E0,-5.2085763E-1,3.2065994E-1,2.0441663E0,6.019273E-2,-9.243936E-2,-2.1783445E-2,6.1461896E-2,-8.280529E-3,6.348314E-2,1.8526886E-2,8.236281E-2],"categories":[],"categories_nodes":[],"categories_segments":[],"categories_sizes":[],"default_left":[0,0,0,0,0,0,0,0,0,0,0,0,0,0,0],"id":66,"left_children":[1,3,5,7,9,11,13,-1,-1,-1,-1,-1,-1,-1,-1],"loss_changes":[1.723716E3,5.196917E2,3.7760352E2,3.2042072E2,3.917832E2,2.1912964E2,3.404485E2,0E0,0E0,0E0,0E0,0E0,0E0,0E0,0E0],"parents":[2147483647,0,0,1,1,2,2,3,3,4,4,5,5,6,6],"right_children":[2,4,6,8,10,12,14,-1,-1,-1,-1,-1,-1,-1,-1],"split_conditions":[1E0,3.5E2,4.05E2,2.2E2,4.12E2,1E0,1E0,6.019273E-2,-9.243936E-2,-2.1783445E-2,6.1461896E-2,-8.280529E-3,6.348314E-2,1.8526886E-2,8.236281E-2],"split_indices":[24,1,1,0,0,23,20,0,0,0,0,0,0,0,0],"split_type":[0,0,0,0,0,0,0,0,0,0,0,0,0,0,0],"sum_hessian":[1.425E3,8.81E2,5.44E2,1.42E2,7.39E2,2.03E2,3.41E2,1.3E1,1.29E2,6.85E2,5.4E1,1.53E2,5E1,1.13E2,2.28E2],"tree_param":{"num_deleted":"0","num_feature":"27","num_nodes":"15","size_leaf_vector":"1"}},{"base_weights":[4.607174E-3,-8.335262E-1,1.3609908E0,-2.526842E0,-5.05178E-1,1.109763E0,4.1277485E0,5.851595E-2,-8.9687504E-2,-2.1130884E-2,5.9651546E-2,3.8217522E-2,-1.7057069E-1,2.5209364E-1,-3.475623E-2],"categories":[],"categories_nodes":[],"categories_segments":[],"categories_sizes":[],"default_left":[0,0,0,0,0,0,0,0,0,0,0,0,0,0,0],"id":67,"left_children":[1,3,5,7,9,11,13,-1,-1,-1,-1,-1,-1,-1,-1],"loss_changes":[1.6222546E3,4.8911304E2,3.7424115E2,3.0210828E2,3.6894366E2,5.6611035E2,1.026774E3,0E0,0E0,0E0,0E0,0E0,0E0,0E0,0E0],"parents":[2147483647,0,0,1,1,2,2,3,3,4,4,5,5,6,6],"right_children":[2,4,6,8,10,12,14,-1,-1,-1,-1,-1,-1,-1,-1],"split_conditions":[1E0,3.5E2,4.53E2,2.2E2,4.12E2,4.12E2,4.91E2,5.851595E-2,-8.9687504E-2,-2.1130884E-2,5.9651546E-2,3.8217522E-2,-1.7057069E-1,2.5209364E-1,-3.475623E-2],"split_indices":[24,1,0,0,0,0,0,0,0,0,0,0,0,0,0],"split_type":[0,0,0,0,0,0,0,0,0,0,0,0,0,0,0],"sum_hessian":[1.425E3,8.81E2,5.44E2,1.42E2,7.39E2,5E2,4.4E1,1.3E1,1.29E2,6.85E2,5.4E1,4.89E2,1.1E1,2.4E1,2E1],"tree_param":{"num_deleted":"0","num_feature":"27","num_nodes":"15","size_leaf_vector":"1"}},{"base_weights":[4.534665E-3,-9.024167E-1,1.1951766E0,-2.5717592E0,-5.2841204E-1,1.6743217E0,-5.6106776E-1,-7.297382E-3,-8.616228E-2,-4.6016504E-3,-4.7444288E-2,1.5198025E-1,4.197798E-2,1.8962991E-1,-3.70018E-2],"categories":[],"categories_nodes":[],"categories_segments":[],"categories_sizes":[],"default_left":[0,0,0,0,0,0,0,0,0,0,0,0,0,0,0],"id":68,"left_children":[1,3,5,7,9,11,13,-1,-1,-1,-1,-1,-1,-1,-1],"loss_changes":[1.5409509E3,5.0435815E2,5.2014233E2,1.0279651E2,2.615921E2,4.4536902E2,6.2318567E2,0E0,0E0,0E0,0E0,0E0,0E0,0E0,0E0],"parents":[2147483647,0,0,1,1,2,2,3,3,4,4,5,5,6,6],"right_children":[2,4,6,8,10,12,14,-1,-1,-1,-1,-1,-1,-1,-1],"split_conditions":[4.05E2,2.5E2,1E0,2.2E2,1E0,3E2,4.5E2,-7.297382E-3,-8.616228E-2,-4.6016504E-3,-4.7444288E-2,1.5198025E-1,4.197798E-2,1.8962991E-1,-3.70018E-2],"split_indices":[1,0,25,0,25,0,1,0,0,0,0,0,0,0,0],"split_type":[0,0,0,0,0,0,0,0,0,0,0,0,0,0,0],"sum_hessian":[1.425E3,8.09E2,6.16E2,1.47E2,6.62E2,4.84E2,1.32E2,1.7E1,1.3E2,4.89E2,1.73E2,3.5E1,4.49E2,1.1E1,1.21E2],"tree_param":{"num_deleted":"0","num_feature":"27","num_nodes":"15","size_leaf_vector":"1"}},{"base_weights":[4.539796E-3,-7.9156685E-1,1.2929095E0,-1.0237308E0,1.4556949E0,1.0500782E0,3.9677012E0,-4.9057018E-2,-8.603355E-3,9.9652685E-2,1.6386976E-2,3.6300175E-2,-1.6703436E-1,3.769248E-2,3.670145E-1],"categories":[],"categories_nodes":[],"categories_segments":[],"categories_sizes":[],"default_left":[0,0,0,0,0,0,0,0,0,0,0,0,0,0,0],"id":69,"left_children":[1,3,5,7,9,11,13,-1,-1,-1,-1,-1,-1,-1,-1],"loss_changes":[1.4636426E3,4.6165887E2,3.4982385E2,3.6005E2,1.3904588E2,5.369877E2,9.931602E2,0E0,0E0,0E0,0E0,0E0,0E0,0E0,0E0],"parents":[2147483647,0,0,1,1,2,2,3,3,4,4,5,5,6,6],"right_children":[2,4,6,8,10,12,14,-1,-1,-1,-1,-1,-1,-1,-1],"split_conditions":[1E0,4.82E2,4.53E2,2.84E2,1E0,4.12E2,4.98E2,-4.9057018E-2,-8.603355E-3,9.9652685E-2,1.6386976E-2,3.6300175E-2,-1.6703436E-1,3.769248E-2,3.670145E-1],"split_indices":[24,1,0,0,25,0,1,0,0,0,0,0,0,0,0],"split_type":[0,0,0,0,0,0,0,0,0,0,0,0,0,0,0],"sum_hessian":[1.425E3,8.81E2,5.44E2,7.99E2,8.2E1,5E2,4.4E1,4.36E2,3.63E2,2.6E1,5.6E1,4.89E2,1.1E1,3.4E1,1E1],"tree_param":{"num_deleted":"0","num_feature":"27","num_nodes":"15","size_leaf_vector":"1"}},{"base_weights":[4.636623E-3,-8.5835755E-1,1.1375712E0,-2.449396E0,-5.0189894E-1,1.594149E0,-5.359463E-1,-6.269722E-3,-8.21562E-2,-4.3617995E-3,-4.5089014E-2,1.4654817E-1,3.9820295E-2,1.8465164E-1,-3.569054E-2],"categories":[],"categories_nodes":[],"categories_segments":[],"categories_sizes":[],"default_left":[0,0,0,0,0,0,0,0,0,0,0,0,0,0,0],"id":70,"left_children":[1,3,5,7,9,11,13,-1,-1,-1,-1,-1,-1,-1,-1],"loss_changes":[1.3951993E3,4.5815332E2,4.722987E2,9.5302185E1,2.363972E2,4.193468E2,5.8908636E2,0E0,0E0,0E0,0E0,0E0,0E0,0E0,0E0],"parents":[2147483647,0,0,1,1,2,2,3,3,4,4,5,5,6,6],"right_children":[2,4,6,8,10,12,14,-1,-1,-1,-1,-1,-1,-1,-1],"split_conditions":[4.05E2,2.5E2,1E0,2.2E2,1E0,3E2,4.5E2,-6.269722E-3,-8.21562E-2,-4.3617995E-3,-4.5089014E-2,1.4654817E-1,3.9820295E-2,1.8465164E-1,-3.569054E-2],"split_indices":[1,0,25,0,25,0,1,0,0,0,0,0,0,0,0],"split_type":[0,0,0,0,0,0,0,0,0,0,0,0,0,0,0],"sum_hessian":[1.425E3,8.09E2,6.16E2,1.47E2,6.62E2,4.84E2,1.32E2,1.7E1,1.3E2,4.89E2,1.73E2,3.5E1,4.49E2,1.1E1,1.21E2],"tree_param":{"num_deleted":"0","num_feature":"27","num_nodes":"15","size_leaf_vector":"1"}},{"base_weights":[4.6357173E-3,-7.5164425E-1,1.2285519E0,-9.304237E-1,1.9534649E0,2.8902653E-1,1.8932657E0,-1.1837577E-2,-5.529631E-2,1.780586E-1,3.1361543E-2,-5.9193675E-3,1.0110923E-1,2.7618024E-2,9.0326026E-2],"categories":[],"categories_nodes":[],"categories_segments":[],"categories_sizes":[],"default_left":[0,0,0,0,0,0,0,0,0,0,0,0,0,0,0],"id":71,"left_children":[1,3,5,7,9,11,13,-1,-1,-1,-1,-1,-1,-1,-1],"loss_changes":[1.3208623E3,4.283685E2,3.3981372E2,4.0425214E2,1.9266507E2,3.4083505E2,3.439978E2,0E0,0E0,0E0,0E0,0E0,0E0,0E0,0E0],"parents":[2147483647,0,0,1,1,2,2,3,3,4,4,5,5,6,6],"right_children":[2,4,6,8,10,12,14,-1,-1,-1,-1,-1,-1,-1,-1],"split_conditions":[1E0,4.12E2,1E0,1E0,4.3E2,4.53E2,3.97E2,-1.1837577E-2,-5.529631E-2,1.780586E-1,3.1361543E-2,-5.9193675E-3,1.0110923E-1,2.7618024E-2,9.0326026E-2],"split_indices":[24,0,20,25,0,0,0,0,0,0,0,0,0,0,0],"split_type":[0,0,0,0,0,0,0,0,0,0,0,0,0,0,0],"sum_hessian":[1.425E3,8.81E2,5.44E2,8.27E2,5.4E1,2.26E2,3.18E2,5.22E2,3.05E2,9E0,4.5E1,1.96E2,3E1,1.71E2,1.47E2],"tree_param":{"num_deleted":"0","num_feature":"27","num_nodes":"15","size_leaf_vector":"1"}},{"base_weights":[4.7459113E-3,-8.156288E-1,1.0817294E0,-2.3517396E0,-4.7149605E-1,1.5141057E0,-5.0311464E-1,-5.7961624E-3,-7.8911394E-2,-2.5176926E-2,1.1704599E-2,1.422936E-1,3.7572592E-2,1.8109441E-1,-3.4266885E-2],"categories":[],"categories_nodes":[],"categories_segments":[],"categories_sizes":[],"default_left":[0,0,0,0,0,0,0,0,0,0,0,0,0,0,0],"id":72,"left_children":[1,3,5,7,9,11,13,-1,-1,-1,-1,-1,-1,-1,-1],"loss_changes":[1.2607963E3,4.270783E2,4.2356042E2,8.850714E1,2.1040459E2,4.0387842E2,5.6277563E2,0E0,0E0,0E0,0E0,0E0,0E0,0E0,0E0],"parents":[2147483647,0,0,1,1,2,2,3,3,4,4,5,5,6,6],"right_children":[2,4,6,8,10,12,14,-1,-1,-1,-1,-1,-1,-1,-1],"split_conditions":[4.05E2,2.5E2,1E0,2.2E2,1E0,3E2,4.5E2,-5.7961624E-3,-7.8911394E-2,-2.5176926E-2,1.1704599E-2,1.422936E-1,3.7572592E-2,1.8109441E-1,-3.4266885E-2],"split_indices":[1,0,25,0,24,0,1,0,0,0,0,0,0,0,0],"split_type":[0,0,0,0,0,0,0,0,0,0,0,0,0,0,0],"sum_hessian":[1.425E3,8.09E2,6.16E2,1.47E2,6.62E2,4.84E2,1.32E2,1.7E1,1.3E2,4.64E2,1.98E2,3.5E1,4.49E2,1.1E1,1.21E2],"tree_param":{"num_deleted":"0","num_feature":"27","num_nodes":"15","size_leaf_vector":"1"}},{"base_weights":[4.7643282E-3,-7.912809E-1,1.0498079E0,-1.7287092E0,-2.5666744E-1,2.8586408E-1,1.9445524E0,-3.4358185E-2,-1.8040249E-1,1.4641203E-2,-2.7877383E-2,-8.260947E-3,6.888667E-2,9.690475E-3,7.9416744E-2],"categories":[],"categories_nodes":[],"categories_segments":[],"categories_sizes":[],"default_left":[0,0,0,0,0,0,0,0,0,0,0,0,0,0,0],"id":73,"left_children":[1,3,5,7,9,11,13,-1,-1,-1,-1,-1,-1,-1,-1],"loss_changes":[1.1871229E3,4.0549738E2,4.2118494E2,7.2807E2,2.5940558E2,3.7747488E2,3.2273706E2,0E0,0E0,0E0,0E0,0E0,0E0,0E0,0E0],"parents":[2147483647,0,0,1,1,2,2,3,3,4,4,5,5,6,6],"right_children":[2,4,6,8,10,12,14,-1,-1,-1,-1,-1,-1,-1,-1],"split_conditions":[4.05E2,2.61E2,3.97E2,1E0,1E0,1E0,1E0,-3.4358185E-2,-1.8040249E-1,1.4641203E-2,-2.7877383E-2,-8.260947E-3,6.888667E-2,9.690475E-3,7.9416744E-2],"split_indices":[1,0,0,18,19,18,20,0,0,0,0,0,0,0,0],"split_type":[0,0,0,0,0,0,0,0,0,0,0,0,0,0,0],"sum_hessian":[1.425E3,8.09E2,6.16E2,2.93E2,5.16E2,3.33E2,2.83E2,2.59E2,3.4E1,2.45E2,2.71E2,2.61E2,7.2E1,8.6E1,1.97E2],"tree_param":{"num_deleted":"0","num_feature":"27","num_nodes":"15","size_leaf_vector":"1"}},{"base_weights":[4.5668734E-3,-6.9687325E-1,1.1397332E0,-8.659786E-1,1.861601E0,9.115077E-1,3.655316E0,-1.0508417E-2,-5.233662E-2,1.7203195E-1,2.937657E-2,3.202239E-2,-1.6591765E-1,3.0402256E-2,3.518725E-1],"categories":[],"categories_nodes":[],"categories_segments":[],"categories_sizes":[],"default_left":[0,0,0,0,0,0,0,0,0,0,0,0,0,0,0],"id":74,"left_children":[1,3,5,7,9,11,13,-1,-1,-1,-1,-1,-1,-1,-1],"loss_changes":[1.1362484E3,3.8321085E2,3.0956366E2,3.7453888E2,1.8233551E2,5.0908658E2,9.4797046E2,0E0,0E0,0E0,0E0,0E0,0E0,0E0,0E0],"parents":[2147483647,0,0,1,1,2,2,3,3,4,4,5,5,6,6],"right_children":[2,4,6,8,10,12,14,-1,-1,-1,-1,-1,-1,-1,-1],"split_conditions":[1E0,4.12E2,4.53E2,1E0,4.3E2,4.12E2,4.98E2,-1.0508417E-2,-5.233662E-2,1.7203195E-1,2.937657E-2,3.202239E-2,-1.6591765E-1,3.0402256E-2,3.518725E-1],"split_indices":[24,0,0,25,0,0,1,0,0,0,0,0,0,0,0],"split_type":[0,0,0,0,0,0,0,0,0,0,0,0,0,0,0],"sum_hessian":[1.425E3,8.81E2,5.44E2,8.27E2,5.4E1,5E2,4.4E1,5.22E2,3.05E2,9E0,4.5E1,4.89E2,1.1E1,3.4E1,1E1],"tree_param":{"num_deleted":"0","num_feature":"27","num_nodes":"15","size_leaf_vector":"1"}},{"base_weights":[4.7013173E-3,-7.567297E-1,1.0043033E0,-2.2219687E0,-4.2850634E-1,1.4175397E0,-5.101626E-1,-9.797058E-2,-4.968409E-2,-3.5844103E-3,-3.8888678E-2,1.3783777E-1,3.4806762E-2,1.7585206E-1,-3.3981748E-2],"categories":[],"categories_nodes":[],"categories_segments":[],"categories_sizes":[],"default_left":[0,0,0,0,0,0,0,0,0,0,0,0,0,0,0],"id":75,"left_children":[1,3,5,7,9,11,13,-1,-1,-1,-1,-1,-1,-1,-1],"loss_changes":[1.0861284E3,3.8859766E2,3.8686182E2,8.199585E1,1.7764017E2,3.9115717E2,5.3423804E2,0E0,0E0,0E0,0E0,0E0,0E0,0E0,0E0],"parents":[2147483647,0,0,1,1,2,2,3,3,4,4,5,5,6,6],"right_children":[2,4,6,8,10,12,14,-1,-1,-1,-1,-1,-1,-1,-1],"split_conditions":[4.05E2,2.5E2,1E0,1E0,1E0,3E2,4.5E2,-9.797058E-2,-4.968409E-2,-3.5844103E-3,-3.8888678E-2,1.3783777E-1,3.4806762E-2,1.7585206E-1,-3.3981748E-2],"split_indices":[1,0,25,26,25,0,1,0,0,0,0,0,0,0,0],"split_type":[0,0,0,0,0,0,0,0,0,0,0,0,0,0,0],"sum_hessian":[1.425E3,8.09E2,6.16E2,1.47E2,6.62E2,4.84E2,1.32E2,5E1,9.7E1,4.89E2,1.73E2,3.5E1,4.49E2,1.1E1,1.21E2],"tree_param":{"num_deleted":"0","num_feature":"27","num_nodes":"15","size_leaf_vector":"1"}},{"base_weights":[4.6479423E-3,-4.3403605E-1,1.652622E0,2.1502075E-1,-1.2542604E0,-9.297312E-2,1.844207E0,2.3359628E-2,-4.641837E-2,-7.0447735E-2,-2.736435E-2,8.982974E-3,7.524145E-2],"categories":[],"categories_nodes":[],"categories_segments":[],"categories_sizes":[],"default_left":[0,0,0,0,0,0,0,0,0,0,0,0,0],"id":76,"left_children":[1,3,5,7,9,-1,11,-1,-1,-1,-1,-1,-1],"loss_changes":[1.0316295E3,6.002532E2,2.7882343E2,6.269783E2,1.8424622E2,0E0,2.9561414E2,0E0,0E0,0E0,0E0,0E0,0E0],"parents":[2147483647,0,0,1,1,2,2,3,3,4,4,6,6],"right_children":[2,4,6,8,10,-1,12,-1,-1,-1,-1,-1,-1],"split_conditions":[3.97E2,1E0,3.54E2,1E0,3.5E2,-9.297312E-2,1E0,2.3359628E-2,-4.641837E-2,-7.0447735E-2,-2.736435E-2,8.982974E-3,7.524145E-2],"split_indices":[0,19,1,25,1,0,20,0,0,0,0,0,0],"split_type":[0,0,0,0,0,0,0,0,0,0,0,0,0],"sum_hessian":[1.425E3,1.126E3,2.99E2,6.29E2,4.97E2,1.1E1,2.88E2,4.77E2,1.52E2,1.17E2,3.8E2,8.7E1,2.01E2],"tree_param":{"num_deleted":"0","num_feature":"27","num_nodes":"13","size_leaf_vector":"1"}},{"base_weights":[4.41747E-3,-6.467771E-1,1.0582693E0,-8.4709424E-1,1.2917829E0,1.8921214E-1,1.6733717E0,-4.0729526E-2,-6.954557E-3,7.220164E-2,9.91682E-4,-1.661404E-2,5.80409E-2,2.3573328E-2,8.08078E-2],"categories":[],"categories_nodes":[],"categories_segments":[],"categories_sizes":[],"default_left":[0,0,0,0,0,0,0,0,0,0,0,0,0,0,0],"id":77,"left_children":[1,3,5,7,9,11,13,-1,-1,-1,-1,-1,-1,-1,-1],"loss_changes":[9.7929486E2,3.4359845E2,2.9101807E2,2.509917E2,1.1640288E2,2.9547195E2,2.8675165E2,0E0,0E0,0E0,0E0,0E0,0E0,0E0,0E0],"parents":[2147483647,0,0,1,1,2,2,3,3,4,4,5,5,6,6],"right_children":[2,4,6,8,10,12,14,-1,-1,-1,-1,-1,-1,-1,-1],"split_conditions":[1E0,4.82E2,1E0,2.84E2,4.97E2,1E0,3.97E2,-4.0729526E-2,-6.954557E-3,7.220164E-2,9.91682E-4,-1.661404E-2,5.80409E-2,2.3573328E-2,8.08078E-2],"split_indices":[24,1,20,0,1,8,0,0,0,0,0,0,0,0,0],"split_type":[0,0,0,0,0,0,0,0,0,0,0,0,0,0,0],"sum_hessian":[1.425E3,8.81E2,5.44E2,7.99E2,8.2E1,2.26E2,3.18E2,4.36E2,3.63E2,4.3E1,3.9E1,1.59E2,6.7E1,1.71E2,1.47E2],"tree_param":{"num_deleted":"0","num_feature":"27","num_nodes":"15","size_leaf_vector":"1"}},{"base_weights":[4.404844E-3,-6.2734497E-1,1.0267882E0,-7.83032E-1,1.7278583E0,8.0558467E-1,3.4667037E0,-9.195474E-3,-4.7847323E-2,1.6527352E-1,2.6048496E-2,2.8723704E-2,-1.6388978E-1,2.676011E-2,3.4031326E-1],"categories":[],"categories_nodes":[],"categories_segments":[],"categories_sizes":[],"default_left":[0,0,0,0,0,0,0,0,0,0,0,0,0,0,0],"id":78,"left_children":[1,3,5,7,9,11,13,-1,-1,-1,-1,-1,-1,-1,-1],"loss_changes":[9.216841E2,3.247599E2,2.9135358E2,3.1984225E2,1.7398169E2,4.8219376E2,9.0253064E2,0E0,0E0,0E0,0E0,0E0,0E0,0E0,0E0],"parents":[2147483647,0,0,1,1,2,2,3,3,4,4,5,5,6,6],"right_children":[2,4,6,8,10,12,14,-1,-1,-1,-1,-1,-1,-1,-1],"split_conditions":[1E0,4.12E2,4.53E2,1E0,4.3E2,4.12E2,4.98E2,-9.195474E-3,-4.7847323E-2,1.6527352E-1,2.6048496E-2,2.8723704E-2,-1.6388978E-1,2.676011E-2,3.4031326E-1],"split_indices":[24,0,0,25,0,0,1,0,0,0,0,0,0,0,0],"split_type":[0,0,0,0,0,0,0,0,0,0,0,0,0,0,0],"sum_hessian":[1.425E3,8.81E2,5.44E2,8.27E2,5.4E1,5E2,4.4E1,5.22E2,3.05E2,9E0,4.5E1,4.89E2,1.1E1,3.4E1,1E1],"tree_param":{"num_deleted":"0","num_feature":"27","num_nodes":"15","size_leaf_vector":"1"}},{"base_weights":[4.5292787E-3,-6.865325E-1,9.1175056E-1,-1.5455825E0,-1.9669262E-1,1.2955774E0,-4.9477404E-1,-2.9532924E-2,-1.7009935E-1,1.4259714E-2,-2.411247E-2,1.3324225E-1,3.1230954E-2,1.7375202E-1,-3.327191E-2],"categories":[],"categories_nodes":[],"categories_segments":[],"categories_sizes":[],"default_left":[0,0,0,0,0,0,0,0,0,0,0,0,0,0,0],"id":79,"left_children":[1,3,5,7,9,11,13,-1,-1,-1,-1,-1,-1,-1,-1],"loss_changes":[8.946509E2,3.4054156E2,3.3373584E2,6.7485516E2,2.1129318E2,3.837436E2,5.2003436E2,0E0,0E0,0E0,0E0,0E0,0E0,0E0,0E0],"parents":[2147483647,0,0,1,1,2,2,3,3,4,4,5,5,6,6],"right_children":[2,4,6,8,10,12,14,-1,-1,-1,-1,-1,-1,-1,-1],"split_conditions":[4.05E2,2.61E2,1E0,1E0,1E0,3E2,4.5E2,-2.9532924E-2,-1.7009935E-1,1.4259714E-2,-2.411247E-2,1.3324225E-1,3.1230954E-2,1.7375202E-1,-3.327191E-2],"split_indices":[1,0,25,18,19,0,1,0,0,0,0,0,0,0,0],"split_type":[0,0,0,0,0,0,0,0,0,0,0,0,0,0,0],"sum_hessian":[1.425E3,8.09E2,6.16E2,2.93E2,5.16E2,4.84E2,1.32E2,2.59E2,3.4E1,2.45E2,2.71E2,3.5E1,4.49E2,1.1E1,1.21E2],"tree_param":{"num_deleted":"0","num_feature":"27","num_nodes":"15","size_leaf_vector":"1"}},{"base_weights":[4.460534E-3,-3.9592114E-1,1.5085461E0,2.1022789E-1,-1.1619412E0,-9.382065E-2,1.6958203E0,2.1820975E-2,-4.2203393E-2,-6.5830335E-2,-2.5174333E-2,6.730018E-3,6.9854066E-2],"categories":[],"categories_nodes":[],"categories_segments":[],"categories_sizes":[],"default_left":[0,0,0,0,0,0,0,0,0,0,0,0,0],"id":80,"left_children":[1,3,5,7,9,-1,11,-1,-1,-1,-1,-1,-1],"loss_changes":[8.5934625E2,5.235354E2,2.6575903E2,5.2783936E2,1.641203E2,0E0,2.685174E2,0E0,0E0,0E0,0E0,0E0,0E0],"parents":[2147483647,0,0,1,1,2,2,3,3,4,4,6,6],"right_children":[2,4,6,8,10,-1,12,-1,-1,-1,-1,-1,-1],"split_conditions":[3.97E2,1E0,3.54E2,1E0,3.5E2,-9.382065E-2,1E0,2.1820975E-2,-4.2203393E-2,-6.5830335E-2,-2.5174333E-2,6.730018E-3,6.9854066E-2],"split_indices":[0,19,1,25,1,0,20,0,0,0,0,0,0],"split_type":[0,0,0,0,0,0,0,0,0,0,0,0,0],"sum_hessian":[1.425E3,1.126E3,2.99E2,6.29E2,4.97E2,1.1E1,2.88E2,4.77E2,1.52E2,1.17E2,3.8E2,8.7E1,2.01E2],"tree_param":{"num_deleted":"0","num_feature":"27","num_nodes":"13","size_leaf_vector":"1"}},{"base_weights":[4.23695E-3,-3.8414174E-1,1.4632322E0,2.0388949E-1,-1.1272653E0,-9.124053E-2,1.6452106E0,2.1167742E-2,-4.0945552E-2,-6.387216E-2,-2.4421073E-2,5.8958963E-2,-3.2464378E-2],"categories":[],"categories_nodes":[],"categories_segments":[],"categories_sizes":[],"default_left":[0,0,0,0,0,0,0,0,0,0,0,0,0],"id":81,"left_children":[1,3,5,7,9,-1,11,-1,-1,-1,-1,-1,-1],"loss_changes":[8.085945E2,4.9270618E2,2.509248E2,4.9679852E2,1.5453699E2,0E0,2.5442224E2,0E0,0E0,0E0,0E0,0E0,0E0],"parents":[2147483647,0,0,1,1,2,2,3,3,4,4,6,6],"right_children":[2,4,6,8,10,-1,12,-1,-1,-1,-1,-1,-1],"split_conditions":[3.97E2,1E0,3.54E2,1E0,3.5E2,-9.124053E-2,1E0,2.1167742E-2,-4.0945552E-2,-6.387216E-2,-2.4421073E-2,5.8958963E-2,-3.2464378E-2],"split_indices":[0,19,1,25,1,0,18,0,0,0,0,0,0],"split_type":[0,0,0,0,0,0,0,0,0,0,0,0,0],"sum_hessian":[1.425E3,1.126E3,2.99E2,6.29E2,4.97E2,1.1E1,2.88E2,4.77E2,1.52E2,1.17E2,3.8E2,2.58E2,3E1],"tree_param":{"num_deleted":"0","num_feature":"27","num_nodes":"13","size_leaf_vector":"1"}},{"base_weights":[3.9885375E-3,-3.7271333E-1,1.4191185E0,1.977413E-1,-1.0936244E0,-8.873143E-2,1.5959451E0,2.0534039E-2,-3.972523E-2,-6.197226E-2,-2.3690345E-2,5.7167527E-3,6.600876E-2],"categories":[],"categories_nodes":[],"categories_segments":[],"categories_sizes":[],"default_left":[0,0,0,0,0,0,0,0,0,0,0,0,0],"id":82,"left_children":[1,3,5,7,9,-1,11,-1,-1,-1,-1,-1,-1],"loss_changes":[7.60704E2,4.636917E2,2.3690253E2,4.675832E2,1.4551349E2,0E0,2.4504022E2,0E0,0E0,0E0,0E0,0E0,0E0],"parents":[2147483647,0,0,1,1,2,2,3,3,4,4,6,6],"right_children":[2,4,6,8,10,-1,12,-1,-1,-1,-1,-1,-1],"split_conditions":[3.97E2,1E0,3.54E2,1E0,3.5E2,-8.873143E-2,1E0,2.0534039E-2,-3.972523E-2,-6.197226E-2,-2.3690345E-2,5.7167527E-3,6.600876E-2],"split_indices":[0,19,1,25,1,0,20,0,0,0,0,0,0],"split_type":[0,0,0,0,0,0,0,0,0,0,0,0,0],"sum_hessian":[1.425E3,1.126E3,2.99E2,6.29E2,4.97E2,1.1E1,2.88E2,4.77E2,1.52E2,1.17E2,3.8E2,8.7E1,2.01E2],"tree_param":{"num_deleted":"0","num_feature":"27","num_nodes":"13","size_leaf_vector":"1"}},{"base_weights":[3.7830696E-3,-3.6162516E-1,1.3764874E0,1.9177805E-1,-1.0609874E0,-8.629136E-2,1.5483141E0,1.9919291E-2,-3.8541283E-2,-2.7439276E-2,-9.093787E-2,5.5622417E-2,-3.1687886E-2],"categories":[],"categories_nodes":[],"categories_segments":[],"categories_sizes":[],"default_left":[0,0,0,0,0,0,0,0,0,0,0,0,0],"id":83,"left_children":[1,3,5,7,9,-1,11,-1,-1,-1,-1,-1,-1],"loss_changes":[7.1577576E2,4.3638553E2,2.2368024E2,4.4008588E2,1.4082056E2,0E0,2.321159E2,0E0,0E0,0E0,0E0,0E0,0E0],"parents":[2147483647,0,0,1,1,2,2,3,3,4,4,6,6],"right_children":[2,4,6,8,10,-1,12,-1,-1,-1,-1,-1,-1],"split_conditions":[3.97E2,1E0,3.54E2,1E0,3.5E2,-8.629136E-2,1E0,1.9919291E-2,-3.8541283E-2,-2.7439276E-2,-9.093787E-2,5.5622417E-2,-3.1687886E-2],"split_indices":[0,19,1,25,0,0,18,0,0,0,0,0,0],"split_type":[0,0,0,0,0,0,0,0,0,0,0,0,0],"sum_hessian":[1.425E3,1.126E3,2.99E2,6.29E2,4.97E2,1.1E1,2.88E2,4.77E2,1.52E2,4.64E2,3.3E1,2.58E2,3E1],"tree_param":{"num_deleted":"0","num_feature":"27","num_nodes":"13","size_leaf_vector":"1"}},{"base_weights":[3.5298015E-3,-5.385183E-1,8.807461E-1,-6.7580926E-1,1.5381267E0,1.2628881E0,-4.1335422E-1,-7.4348347E-3,-4.215256E-2,1.5494747E-1,2.14877E-2,5.0953194E-2,-1.3604608E-2,2.6846327E-2,-6.622378E-2],"categories":[],"categories_nodes":[],"categories_segments":[],"categories_sizes":[],"default_left":[0,0,0,0,0,0,0,0,0,0,0,0,0,0,0],"id":84,"left_children":[1,3,5,7,9,11,13,-1,-1,-1,-1,-1,-1,-1,-1],"loss_changes":[6.785279E2,2.525018E2,2.7004095E2,2.580844E2,1.6024179E2,3.154972E2,2.9536356E2,0E0,0E0,0E0,0E0,0E0,0E0,0E0,0E0],"parents":[2147483647,0,0,1,1,2,2,3,3,4,4,5,5,6,6],"right_children":[2,4,6,8,10,12,14,-1,-1,-1,-1,-1,-1,-1,-1],"split_conditions":[1E0,4.12E2,1E0,1E0,4.3E2,1E0,1E0,-7.4348347E-3,-4.215256E-2,1.5494747E-1,2.14877E-2,5.0953194E-2,-1.3604608E-2,2.6846327E-2,-6.622378E-2],"split_indices":[24,0,21,25,0,19,18,0,0,0,0,0,0,0,0],"split_type":[0,0,0,0,0,0,0,0,0,0,0,0,0,0,0],"sum_hessian":[1.425E3,8.81E2,5.44E2,8.27E2,5.4E1,4.2E2,1.24E2,5.22E2,3.05E2,9E0,4.5E1,3.35E2,8.5E1,7.2E1,5.2E1],"tree_param":{"num_deleted":"0","num_feature":"27","num_nodes":"15","size_leaf_vector":"1"}},{"base_weights":[3.511271E-3,-5.852717E-1,7.7646214E-1,-1.3857319E0,-1.2894563E-1,5.717783E-1,3.0861416E0,-2.5221383E-2,-1.6184561E-1,-1.4406967E-2,2.5761139E-2,2.0234747E-2,-1.7648408E-1,2.5963468E-2,3.264249E-1],"categories":[],"categories_nodes":[],"categories_segments":[],"categories_sizes":[],"default_left":[0,0,0,0,0,0,0,0,0,0,0,0,0,0,0],"id":85,"left_children":[1,3,5,7,9,11,13,-1,-1,-1,-1,-1,-1,-1,-1],"loss_changes":[6.494275E2,2.956907E2,2.8992468E2,6.378686E2,1.7978465E2,3.805357E2,8.560635E2,0E0,0E0,0E0,0E0,0E0,0E0,0E0,0E0],"parents":[2147483647,0,0,1,1,2,2,3,3,4,4,5,5,6,6],"right_children":[2,4,6,8,10,12,14,-1,-1,-1,-1,-1,-1,-1,-1],"split_conditions":[4.05E2,2.61E2,4.53E2,1E0,1E0,4.5E2,4.98E2,-2.5221383E-2,-1.6184561E-1,-1.4406967E-2,2.5761139E-2,2.0234747E-2,-1.7648408E-1,2.5963468E-2,3.264249E-1],"split_indices":[1,0,0,18,23,0,1,0,0,0,0,0,0,0,0],"split_type":[0,0,0,0,0,0,0,0,0,0,0,0,0,0,0],"sum_hessian":[1.425E3,8.09E2,6.16E2,2.93E2,5.16E2,5.67E2,4.9E1,2.59E2,3.4E1,3.81E2,1.35E2,5.59E2,8E0,3.9E1,1E1],"tree_param":{"num_deleted":"0","num_feature":"27","num_nodes":"15","size_leaf_vector":"1"}},{"base_weights":[3.420589E-3,5.305138E-1,-8.247393E-1,9.380342E-1,-6.888871E-1,-1.028001E0,2.6441998E0,3.9415184E-2,-2.736605E-2,-1.2877195E-1,1.6373422E-2,-2.8326912E-2,-1.7177787E-1,3.175224E-1,-4.9220994E-2],"categories":[],"categories_nodes":[],"categories_segments":[],"categories_sizes":[],"default_left":[0,0,0,0,0,0,0,0,0,0,0,0,0,0,0],"id":86,"left_children":[1,3,5,7,9,11,13,-1,-1,-1,-1,-1,-1,-1,-1],"loss_changes":[6.229115E2,4.3396967E2,3.9405E2,4.5594336E2,9.7670435E2,2.01206E2,1.0720347E3,0E0,0E0,0E0,0E0,0E0,0E0,0E0,0E0],"parents":[2147483647,0,0,1,1,2,2,3,3,4,4,5,5,6,6],"right_children":[2,4,6,8,10,12,14,-1,-1,-1,-1,-1,-1,-1,-1],"split_conditions":[1E0,1E0,4.53E2,1E0,2.6E2,4.12E2,4.91E2,3.9415184E-2,-2.736605E-2,-1.2877195E-1,1.6373422E-2,-2.8326912E-2,-1.7177787E-1,3.175224E-1,-4.9220994E-2],"split_indices":[19,25,0,21,0,0,0,0,0,0,0,0,0,0,0],"split_type":[0,0,0,0,0,0,0,0,0,0,0,0,0,0,0],"sum_hessian":[1.425E3,8.71E2,5.54E2,6.53E2,2.18E2,5.24E2,3E1,5.43E2,1.1E2,5.5E1,1.63E2,5.16E2,8E0,1E1,2E1],"tree_param":{"num_deleted":"0","num_feature":"27","num_nodes":"15","size_leaf_vector":"1"}},{"base_weights":[3.295774E-3,-3.3141178E-1,1.2606695E0,1.7955558E-1,-9.771508E-1,-8.585401E-2,1.4274825E0,1.8104095E-2,-3.438011E-2,-2.5004795E-2,-8.73942E-2,3.378024E-3,5.9797067E-2],"categories":[],"categories_nodes":[],"categories_segments":[],"categories_sizes":[],"default_left":[0,0,0,0,0,0,0,0,0,0,0,0,0],"id":87,"left_children":[1,3,5,7,9,-1,11,-1,-1,-1,-1,-1,-1],"loss_changes":[6.005534E2,3.7203085E2,2.1038965E2,3.5470334E2,1.3607547E2,0E0,2.147622E2,0E0,0E0,0E0,0E0,0E0,0E0],"parents":[2147483647,0,0,1,1,2,2,3,3,4,4,6,6],"right_children":[2,4,6,8,10,-1,12,-1,-1,-1,-1,-1,-1],"split_conditions":[3.97E2,1E0,3.54E2,1E0,3.5E2,-8.585401E-2,1E0,1.8104095E-2,-3.438011E-2,-2.5004795E-2,-8.73942E-2,3.378024E-3,5.9797067E-2],"split_indices":[0,19,1,25,0,0,20,0,0,0,0,0,0],"split_type":[0,0,0,0,0,0,0,0,0,0,0,0,0],"sum_hessian":[1.425E3,1.126E3,2.99E2,6.29E2,4.97E2,1.1E1,2.88E2,4.77E2,1.52E2,4.64E2,3.3E1,8.7E1,2.01E2],"tree_param":{"num_deleted":"0","num_feature":"27","num_nodes":"13","size_leaf_vector":"1"}},{"base_weights":[3.0908906E-3,-4.936545E-1,8.069924E-1,-6.1961746E-1,1.4116365E0,1.165622E0,-4.07328E-1,-6.6611134E-3,-3.891351E-2,1.4816102E-1,1.842587E-2,4.6958257E-2,-1.2281016E-2,2.53267E-2,-6.370432E-2],"categories":[],"categories_nodes":[],"categories_segments":[],"categories_sizes":[],"default_left":[0,0,0,0,0,0,0,0,0,0,0,0,0,0,0],"id":88,"left_children":[1,3,5,7,9,11,13,-1,-1,-1,-1,-1,-1,-1,-1],"loss_changes":[5.698492E2,2.1255127E2,2.3781747E2,2.2274252E2,1.5166104E2,2.6563898E2,2.7027386E2,0E0,0E0,0E0,0E0,0E0,0E0,0E0,0E0],"parents":[2147483647,0,0,1,1,2,2,3,3,4,4,5,5,6,6],